{"learner":{"attributes":{"scikit_learn":"{\"_estimator_type\": \"classifier\"}"},"feature_names":["open","high","low","close","volume","quote_volume","ret_1m","ret_3m","ret_5m","ret_10m","ret_20m","ret_60m","ret_120m","ret_diff","ret_ratio","adx_14","adx_20","trend_consistency_5","linear_reg_slope_5","linear_reg_r2_5","trend_consistency_10","linear_reg_slope_10","linear_reg_r2_10","trend_consistency_20","linear_reg_slope_20","linear_reg_r2_20","ma_5","ma_10","ma_20","ma_60","ma_diff_fast_slow","ma_slope_5","price_vs_ma_5","ma_slope_10","price_vs_ma_10","ma_slope_20","price_vs_ma_20","ma_alignment","macd_line","signal_line","macd_hist","macd_hist_diff","macd_cross_distance","rvol_5","rvol_10","rvol_20","rvol_60","rvol_ratio","rvol_percentile","atr_5","natr_5","atr_14","natr_14","atr_20","natr_20","atr_ratio","rvol_acceleration","atr_slope","bb_position","bb_width","bb_width_change","bb_squeeze","vol_3","vol_5","vol_10","vol_20","vol_ratio","vol_spike","vol_trend","vol_price_corr_5","volume_weighted_return_5","up_vol_ratio_5","vol_price_corr_10","volume_weighted_return_10","up_vol_ratio_10","vol_price_corr_20","volume_weighted_return_20","up_vol_ratio_20","taker_buy_ratio","taker_buy_ratio_ma_3","taker_buy_ratio_ma_10","taker_buy_ratio_change","net_taker_flow_5","net_taker_flow_10","net_taker_flow_20","taker_imbalance_intensity","body_ratio","upper_shadow_ratio","lower_shadow_ratio","shadow_imbalance","body_ratio_trend_5","upper_shadow_ma_5","direction_consistency_5","doji_count_5","body_ratio_trend_10","upper_shadow_ma_10","direction_consistency_10","doji_count_10","body_ratio_trend_20","upper_shadow_ma_20","direction_consistency_20","doji_count_20","candle_efficiency_5","range_body_divergence_5","candle_efficiency_10","range_body_divergence_10","candle_efficiency_20","range_body_divergence_20","dist_to_high_20","dist_to_low_20","range_position_20","dist_to_high_60","dist_to_low_60","range_position_60","dist_to_high_120","dist_to_low_120","range_position_120","dist_to_high_288","dist_to_low_288","range_position_288","dist_to_round_number","dist_to_daily_open","dist_to_prev_daily_close","vwap","dist_to_vwap","breakout_20","breakout_age_20","false_breakout_count_20","breakout_60","breakout_age_60","false_breakout_count_60","hour_sin","hour_cos","dow_sin","dow_cos","session_id","session_progress","minute_of_session","is_cme_open","is_cme_close","is_weekend","is_funding_window","time_to_next_funding","return_skewness_20","return_kurtosis_20","return_entropy_20","return_skewness_60","return_kurtosis_60","return_entropy_60","return_skewness_120","return_kurtosis_120","return_entropy_120","return_autocorr_lag1_30","return_autocorr_lag2_30","return_autocorr_lag1_60","return_autocorr_lag2_60","return_autocorr_lag1_120","return_autocorr_lag2_120","hurst_60","hurst_120","vol_regime","trend_regime"],"feature_types":["float","float","float","float","float","float","float","float","float","float","float","float","float","float","float","float","float","float","float","float","float","float","float","float","float","float","float","float","float","float","float","float","float","float","float","float","float","float","float","float","float","float","float","float","float","float","float","float","float","float","float","float","float","float","float","float","float","float","float","float","float","float","float","float","float","float","float","float","float","float","float","float","float","float","float","float","float","float","float","float","float","float","float","float","float","float","float","float","float","float","float","float","float","float","float","float","float","float","float","float","float","float","float","float","float","float","float","float","float","float","float","float","float","float","float","float","float","float","float","float","float","float","float","float","float","float","float","float","float","float","float","float","float","float","float","float","float","float","float","float","float","float","float","float","float","float","float","float","float","float","float","float","float","float","float","float","float","float","float","float","float","float"],"gradient_booster":{"model":{"cats":{"enc":[],"feature_segments":[],"sorted_idx":[]},"gbtree_model_param":{"num_parallel_tree":"1","num_trees":"300"},"iteration_indptr":[0,3,6,9,12,15,18,21,24,27,30,33,36,39,42,45,48,51,54,57,60,63,66,69,72,75,78,81,84,87,90,93,96,99,102,105,108,111,114,117,120,123,126,129,132,135,138,141,144,147,150,153,156,159,162,165,168,171,174,177,180,183,186,189,192,195,198,201,204,207,210,213,216,219,222,225,228,231,234,237,240,243,246,249,252,255,258,261,264,267,270,273,276,279,282,285,288,291,294,297,300],"tree_info":[0,1,2,0,1,2,0,1,2,0,1,2,0,1,2,0,1,2,0,1,2,0,1,2,0,1,2,0,1,2,0,1,2,0,1,2,0,1,2,0,1,2,0,1,2,0,1,2,0,1,2,0,1,2,0,1,2,0,1,2,0,1,2,0,1,2,0,1,2,0,1,2,0,1,2,0,1,2,0,1,2,0,1,2,0,1,2,0,1,2,0,1,2,0,1,2,0,1,2,0,1,2,0,1,2,0,1,2,0,1,2,0,1,2,0,1,2,0,1,2,0,1,2,0,1,2,0,1,2,0,1,2,0,1,2,0,1,2,0,1,2,0,1,2,0,1,2,0,1,2,0,1,2,0,1,2,0,1,2,0,1,2,0,1,2,0,1,2,0,1,2,0,1,2,0,1,2,0,1,2,0,1,2,0,1,2,0,1,2,0,1,2,0,1,2,0,1,2,0,1,2,0,1,2,0,1,2,0,1,2,0,1,2,0,1,2,0,1,2,0,1,2,0,1,2,0,1,2,0,1,2,0,1,2,0,1,2,0,1,2,0,1,2,0,1,2,0,1,2,0,1,2,0,1,2,0,1,2,0,1,2,0,1,2,0,1,2,0,1,2,0,1,2,0,1,2,0,1,2,0,1,2,0,1,2,0,1,2,0,1,2,0,1,2,0,1,2,0,1,2],"trees":[{"base_weights":[5.089569E-7,-1.5962441E-1,1.8361402E-1,-1.2499017E-1,-3.8068295E-1,1.4731696E-1,5.656217E-1,-2.0566246E-1,-7.44359E-2,-4.9308112E-1,-1.5302137E-1,2.2476782E-1,1.0045914E-1,2.8657576E-1,7.2181714E-1,-2.6381397E-1,-8.371994E-2,-1.0836847E-1,-1.7576426E-2,-3.4748915E-1,-5.840443E-1,-8.701533E-2,-3.3348638E-1,6.280096E-2,2.88039E-1,6.959954E-2,1.6845877E-1,1.6976011E-1,3.7656903E-1,5.3537554E-1,8.884058E-1,-8.782978E-2,-3.1029657E-1,7.819015E-2,-1.1184677E-1,-2.383157E-1,-9.3250915E-2,-1.11025825E-1,1.6305491E-2,-5.218765E-1,-2.8290436E-1,-6.526467E-1,-4.372906E-1,-1.3591364E-1,9.895147E-2,-4.0373558E-1,-1.1095156E-1,8.445654E-2,-9.956521E-2,2.6655486E-1,4.3685043E-1,1.35298185E-2,1.1802307E-1,1.2144595E-1,2.6904324E-1,1.0477123E-1,3.181137E-1,2.1877293E-1,5.0844306E-1,3.6410862E-1,6.8594766E-1,7.800313E-1,1.0437666E0,-3.7941836E-2,3.2663703E-2,-1.3027807E-1,-8.681094E-2,-7.527864E-2,3.8072355E-2,-4.333676E-2,-4.519341E-4,-9.7246446E-2,-4.883631E-2,-2.0664435E-2,-4.3449648E-2,-5.29243E-2,-7.717921E-3,8.183131E-3,-7.7742845E-2,-1.6837919E-1,-2.855234E-2,-1.2768996E-1,-6.472887E-2,-1.8038768E-1,-2.2507088E-1,-7.7096604E-2,-1.5105967E-1,-5.362421E-2,-4.2684325E-3,9.0884075E-2,-3.5483006E-3,1.0124611E-1,-1.2646542E-1,-5.0386667E-2,2.1449842E-1,2.703911E-3,3.7190203E-2,-8.020849E-2,4.7857915E-3,5.9113078E-2,8.992852E-2,1.06066115E-1,1.692968E-1,-8.977306E-5,4.2837124E-2,4.9317785E-2,1.2591226E-2,4.3849364E-2,-3.578542E-2,1.1615032E-1,6.262562E-2,-8.5909694E-2,3.9893825E-2,6.401586E-2,1.8720089E-1,-1.0357983E-2,8.849383E-2,9.529176E-2,1.8405585E-1,1.4342421E-1,5.599663E-2,1.5354598E-1,2.3305514E-1,1.7990607E-1,2.556894E-1,1.4592087E-1,3.1819767E-1],"categories":[],"categories_nodes":[],"categories_segments":[],"categories_sizes":[],"default_left":[0,0,0,0,0,0,0,0,0,0,0,0,0,0,0,0,0,0,0,0,0,0,0,0,0,0,0,0,0,0,0,0,0,0,0,0,0,0,0,0,0,0,0,0,0,0,0,0,0,0,0,0,0,0,0,0,0,0,0,0,0,0,0,0,0,0,0,0,0,0,0,0,0,0,0,0,0,0,0,0,0,0,0,0,0,0,0,0,0,0,0,0,0,0,0,0,0,0,0,0,0,0,0,0,0,0,0,0,0,0,0,0,0,0,0,0,0,0,0,0,0,0,0,0,0,0,0],"id":0,"left_children":[1,3,5,7,9,11,13,15,17,19,21,23,25,27,29,31,33,35,37,39,41,43,45,47,49,51,53,55,57,59,61,63,65,67,69,71,73,75,77,79,81,83,85,87,89,91,93,95,97,99,101,103,105,107,109,111,113,115,117,119,121,123,125,-1,-1,-1,-1,-1,-1,-1,-1,-1,-1,-1,-1,-1,-1,-1,-1,-1,-1,-1,-1,-1,-1,-1,-1,-1,-1,-1,-1,-1,-1,-1,-1,-1,-1,-1,-1,-1,-1,-1,-1,-1,-1,-1,-1,-1,-1,-1,-1,-1,-1,-1,-1,-1,-1,-1,-1,-1,-1,-1,-1,-1,-1,-1,-1],"loss_changes":[1.0802929E4,1.5095381E3,2.3766724E3,6.952007E2,6.8332104E2,5.6808716E2,6.480596E2,4.656565E2,2.0219116E2,2.3658057E2,1.0513718E2,6.0466943E2,2.0465808E2,5.6065857E1,2.956748E2,3.6370776E2,9.658191E1,1.2890637E2,1.24016556E2,7.731317E1,1.1048486E2,5.880932E1,3.6911804E1,5.8294075E1,1.3553809E2,1.8215381E2,1.4393573E2,2.2384857E1,6.262979E1,1.158468E2,8.394678E1,7.06465E1,9.1121826E1,5.0366333E1,6.500987E1,4.428485E1,7.389188E1,5.812735E1,8.6881874E1,3.1165985E1,4.802487E1,3.7114502E1,4.17677E1,2.6684158E1,3.0437511E1,2.3865051E1,2.689067E1,4.359787E1,3.782509E1,8.553125E1,5.6621826E1,5.557768E1,1.26945435E2,1.2348865E2,6.897742E1,1.7894257E1,2.2541946E1,2.6539917E1,3.2719147E1,4.255191E1,3.7505615E1,3.818933E1,1.8932373E1,0E0,0E0,0E0,0E0,0E0,0E0,0E0,0E0,0E0,0E0,0E0,0E0,0E0,0E0,0E0,0E0,0E0,0E0,0E0,0E0,0E0,0E0,0E0,0E0,0E0,0E0,0E0,0E0,0E0,0E0,0E0,0E0,0E0,0E0,0E0,0E0,0E0,0E0,0E0,0E0,0E0,0E0,0E0,0E0,0E0,0E0,0E0,0E0,0E0,0E0,0E0,0E0,0E0,0E0,0E0,0E0,0E0,0E0,0E0,0E0,0E0,0E0,0E0,0E0],"parents":[2147483647,0,0,1,1,2,2,3,3,4,4,5,5,6,6,7,7,8,8,9,9,10,10,11,11,12,12,13,13,14,14,15,15,16,16,17,17,18,18,19,19,20,20,21,21,22,22,23,23,24,24,25,25,26,26,27,27,28,28,29,29,30,30,31,31,32,32,33,33,34,34,35,35,36,36,37,37,38,38,39,39,40,40,41,41,42,42,43,43,44,44,45,45,46,46,47,47,48,48,49,49,50,50,51,51,52,52,53,53,54,54,55,55,56,56,57,57,58,58,59,59,60,60,61,61,62,62],"right_children":[2,4,6,8,10,12,14,16,18,20,22,24,26,28,30,32,34,36,38,40,42,44,46,48,50,52,54,56,58,60,62,64,66,68,70,72,74,76,78,80,82,84,86,88,90,92,94,96,98,100,102,104,106,108,110,112,114,116,118,120,122,124,126,-1,-1,-1,-1,-1,-1,-1,-1,-1,-1,-1,-1,-1,-1,-1,-1,-1,-1,-1,-1,-1,-1,-1,-1,-1,-1,-1,-1,-1,-1,-1,-1,-1,-1,-1,-1,-1,-1,-1,-1,-1,-1,-1,-1,-1,-1,-1,-1,-1,-1,-1,-1,-1,-1,-1,-1,-1,-1,-1,-1,-1,-1,-1,-1],"split_conditions":[6.338093E-1,9.791667E-1,1.309E3,-3.007058E-1,-1.8569882E0,-3.007058E-1,2.9740326E0,-4.653141E0,-1.6005531E1,-5.2621394E-1,1.835002E1,4.59874E0,4.1386402E1,1.5399587E0,1.36E3,3.393984E-4,7.183113E0,-3.5132952E-3,-2.9084278E1,-2.2252093E-1,-3.761487E0,1.7864513E1,1.1562598E1,7.1325046E-1,6.3270533E-1,-2.0873122E-5,1.0489333E5,1.0320572E5,-2.5460196E-1,7.399226E0,6.706283E0,5.141454E-1,-6.9694885E1,2.287824E2,1.5482564E0,8.7E4,4.3267162E1,-4.273397E0,6.2642746E0,1.1716287E5,-2.46703E1,-2.5460196E-1,1.6666667E-1,-8.7155744E-2,9.3799555E-1,-3.293925E-1,6.861567E1,2.83208E2,-5.67582E0,9.262962E0,-9.840932E0,1.1573302E5,4.8113384E-4,1.02942766E5,1.1076722E5,-1.3263199E-1,3.4952427E1,4.9982575E-1,2.0416667E-1,1.5323867E-4,4.687173E0,9.692309E-1,5.7843918E4,-3.7941836E-2,3.2663703E-2,-1.3027807E-1,-8.681094E-2,-7.527864E-2,3.8072355E-2,-4.333676E-2,-4.519341E-4,-9.7246446E-2,-4.883631E-2,-2.0664435E-2,-4.3449648E-2,-5.29243E-2,-7.717921E-3,8.183131E-3,-7.7742845E-2,-1.6837919E-1,-2.855234E-2,-1.2768996E-1,-6.472887E-2,-1.8038768E-1,-2.2507088E-1,-7.7096604E-2,-1.5105967E-1,-5.362421E-2,-4.2684325E-3,9.0884075E-2,-3.5483006E-3,1.0124611E-1,-1.2646542E-1,-5.0386667E-2,2.1449842E-1,2.703911E-3,3.7190203E-2,-8.020849E-2,4.7857915E-3,5.9113078E-2,8.992852E-2,1.06066115E-1,1.692968E-1,-8.977306E-5,4.2837124E-2,4.9317785E-2,1.2591226E-2,4.3849364E-2,-3.578542E-2,1.1615032E-1,6.262562E-2,-8.5909694E-2,3.9893825E-2,6.401586E-2,1.8720089E-1,-1.0357983E-2,8.849383E-2,9.529176E-2,1.8405585E-1,1.4342421E-1,5.599663E-2,1.5354598E-1,2.3305514E-1,1.7990607E-1,2.556894E-1,1.4592087E-1,3.1819767E-1],"split_indices":[122,136,137,131,122,131,122,122,122,131,65,122,122,122,137,54,65,11,38,134,122,124,124,132,132,76,123,1,131,122,122,149,38,16,77,3,53,121,147,3,38,131,48,131,150,154,65,15,111,122,117,1,45,123,123,150,121,150,48,155,64,132,29,0,0,0,0,0,0,0,0,0,0,0,0,0,0,0,0,0,0,0,0,0,0,0,0,0,0,0,0,0,0,0,0,0,0,0,0,0,0,0,0,0,0,0,0,0,0,0,0,0,0,0,0,0,0,0,0,0,0,0,0,0,0,0,0],"split_type":[0,0,0,0,0,0,0,0,0,0,0,0,0,0,0,0,0,0,0,0,0,0,0,0,0,0,0,0,0,0,0,0,0,0,0,0,0,0,0,0,0,0,0,0,0,0,0,0,0,0,0,0,0,0,0,0,0,0,0,0,0,0,0,0,0,0,0,0,0,0,0,0,0,0,0,0,0,0,0,0,0,0,0,0,0,0,0,0,0,0,0,0,0,0,0,0,0,0,0,0,0,0,0,0,0,0,0,0,0,0,0,0,0,0,0,0,0,0,0,0,0,0,0,0,0,0,0],"sum_hessian":[3.6858175E5,1.9717084E5,1.7141089E5,1.704649E5,2.670594E4,1.5653853E5,1.487237E4,6.5669445E4,1.0479547E5,1.7878184E4,8.827756E3,5.9005332E4,9.7533195E4,5.3382773E3,9.534093E3,4.4464297E4,2.1205146E4,6.5628695E4,3.916677E4,6.8765977E3,1.1001586E4,6.4647295E3,2.3630269E3,1.6575633E4,4.24297E4,6.708891E4,3.0444285E4,2.3242173E3,3.01406E3,4.5009575E3,5.0331357E3,9.291047E3,3.517325E4,3.1382512E3,1.8066896E4,6.8377876E3,5.8790906E4,1.0421381E4,2.874539E4,1.85656E3,5.0200376E3,7.4946426E3,3.5069434E3,5.1190024E3,1.345727E3,1.7954347E3,5.6759216E2,1.4625443E4,1.9501885E3,3.7079293E4,5.3504053E3,3.1090469E4,3.599844E4,2.0748646E4,9.695639E3,1.6173951E3,7.068221E2,1.373379E3,1.640681E3,2.107368E3,2.3935896E3,2.9684585E3,2.0646772E3,7.765825E3,1.525222E3,5.0772817E3,3.0095969E4,4.0410623E2,2.7341448E3,1.3945303E4,4.1215923E3,3.1988914E3,3.6388965E3,3.99289E4,1.886201E4,5.898593E3,4.522788E3,2.7645135E4,1.1002556E3,1.6993807E3,1.5717937E2,1.6042969E3,3.4157407E3,4.9152515E3,2.579391E3,9.4356134E2,2.563382E3,3.7858884E3,1.3331139E3,4.7299347E2,8.727336E2,4.172045E1,1.7537142E3,5.316932E2,3.589899E1,5.0273145E3,9.598129E3,7.94629E2,1.1555594E3,1.1989293E4,2.509E4,3.238186E3,2.112219E3,2.8086596E4,3.0038726E3,2.2362646E4,1.3635796E4,1.8816893E4,1.9317539E3,3.2745703E3,6.4210684E3,1.081821E2,1.509213E3,5.278122E2,1.7900984E2,3.177546E2,1.0556244E3,5.840863E2,1.0565947E3,1.2821761E3,8.251917E2,8.232512E2,1.5703384E3,8.518734E2,2.1165852E3,6.161043E1,2.0030668E3],"tree_param":{"num_deleted":"0","num_feature":"162","num_nodes":"127","size_leaf_vector":"1"}},{"base_weights":[-1.8283408E-6,-9.14237E-2,9.895157E-2,-1.8564555E-1,-5.3745613E-2,5.040294E-2,1.4661565E-1,-2.719779E-1,-1.548102E-1,-8.925327E-2,-2.8882852E-2,9.16425E-2,3.307411E-2,1.2826924E-1,2.1805614E-1,-3.454207E-1,-2.4040723E-1,-9.175987E-2,-1.7141348E-1,-3.5133846E-2,-1.0071679E-1,-4.0870477E-2,2.2898018E-2,1.2572588E-1,4.7885668E-2,5.305367E-2,-1.4265959E-2,7.8708485E-2,1.498553E-1,4.175076E-1,2.0494463E-1,-3.106904E-1,-4.1657773E-1,-1.4097108E-1,-2.6281348E-1,1.3408602E0,-9.4773114E-2,-1.4187194E-1,-1.933861E-1,9.223996E-3,-7.725724E-2,-1.1900126E-1,-5.1135913E-2,-4.865905E-2,2.24746E-2,4.6955206E-2,-2.7865613E-2,1.1542118E-1,4.1098753E-1,5.6059558E-2,-2.3626788E-1,6.8898094E-3,1.12312235E-1,-9.109608E-4,-2.1391647E-1,9.79626E-2,-1.9145884E-1,1.9120531E-1,8.194803E-2,7.1886414E-1,2.3812595E-1,2.3195222E-1,1.1688298E-1,4.0017924E-1,-9.3859985E-2,-3.2042798E-2,-1.2913209E-1,-4.581377E-2,1.21398024E-1,-8.367573E-2,-5.2668408E-2,6.096313E-1,-6.0793124E-2,-5.6313504E-2,-2.0357165E-2,1.5446235E-2,-4.4736966E-2,-5.922184E-2,3.189924E-2,2.5465405E-2,-1.33877015E-2,9.66295E-2,-2.5879754E-2,-2.171836E-2,-3.939483E-2,-1.9076518E-3,-3.3485442E-2,-8.548845E-3,-2.2141172E-2,1.1609148E-2,-4.8388172E-2,1.765171E-2,-4.4631477E-2,1.3054785E-2,-2.4535693E-2,1.7728064E-2,4.8400294E-2,4.8049362E-3,1.544487E-1,1.217213E-2,6.033255E-2,-1.0728288E-1,4.9582418E-2,6.8611484E-3,-7.518029E-2,4.224418E-2,9.203236E-3,-3.051021E-3,6.490901E-2,-1.4534804E-1,-4.6052087E-2,1.7748881E-2,4.82547E-2,-1.1352894E-1,-2.9617654E-2,6.515938E-2,3.729931E-2,3.6877003E-2,-1.807346E-4,4.9165615E-1,1.9017735E-1,-8.722711E-3,1.0391487E-1,5.0560024E-2,9.399482E-2,1.1280418E-2,8.9050144E-2],"categories":[],"categories_nodes":[],"categories_segments":[],"categories_sizes":[],"default_left":[0,0,0,0,0,0,0,0,0,0,0,0,0,0,0,0,0,0,0,0,0,0,0,0,0,0,0,0,0,0,0,0,0,0,0,0,0,0,0,0,0,0,0,0,0,0,0,0,0,0,0,0,0,0,0,0,0,0,0,0,0,0,0,0,0,0,0,0,0,0,0,0,0,0,0,0,0,0,0,0,0,0,0,0,0,0,0,0,0,0,0,0,0,0,0,0,0,0,0,0,0,0,0,0,0,0,0,0,0,0,0,0,0,0,0,0,0,0,0,0,0,0,0,0,0,0,0],"id":1,"left_children":[1,3,5,7,9,11,13,15,17,19,21,23,25,27,29,31,33,35,37,39,41,43,45,47,49,51,53,55,57,59,61,63,65,67,69,71,73,75,77,79,81,83,85,87,89,91,93,95,97,99,101,103,105,107,109,111,113,115,117,119,121,123,125,-1,-1,-1,-1,-1,-1,-1,-1,-1,-1,-1,-1,-1,-1,-1,-1,-1,-1,-1,-1,-1,-1,-1,-1,-1,-1,-1,-1,-1,-1,-1,-1,-1,-1,-1,-1,-1,-1,-1,-1,-1,-1,-1,-1,-1,-1,-1,-1,-1,-1,-1,-1,-1,-1,-1,-1,-1,-1,-1,-1,-1,-1,-1,-1],"loss_changes":[1.8960955E3,3.8674872E2,2.329021E2,8.280176E1,6.870203E1,3.5631767E1,6.653833E1,1.890332E1,2.3990845E1,1.9880478E1,2.8414707E1,2.1996338E1,3.321129E1,4.3222473E1,2.7049255E1,5.9487E0,1.2729584E1,2.0771244E1,1.1754456E1,1.047135E1,2.3970306E1,1.8339619E1,1.0510837E1,2.4328888E1,1.5020782E1,6.7546104E1,2.778749E1,6.3810608E1,7.9029236E1,3.4375496E1,2.3133331E1,6.3468018E0,3.4055023E0,6.826412E0,6.5208435E0,1.11915455E1,1.1927383E1,1.0868118E1,1.2559174E1,1.1128179E1,1.0368757E1,1.1080017E1,1.9301683E1,1.6779663E1,1.214125E1,1.3590331E1,1.0655843E1,2.069246E1,1.1833595E1,1.4101446E1,8.871403E0,5.7122093E1,2.5153E1,1.9655706E1,1.0605959E1,2.7923698E1,1.4113796E1,3.0384521E1,3.6043053E1,1.755658E1,1.1641489E1,3.839688E1,3.2625835E1,0E0,0E0,0E0,0E0,0E0,0E0,0E0,0E0,0E0,0E0,0E0,0E0,0E0,0E0,0E0,0E0,0E0,0E0,0E0,0E0,0E0,0E0,0E0,0E0,0E0,0E0,0E0,0E0,0E0,0E0,0E0,0E0,0E0,0E0,0E0,0E0,0E0,0E0,0E0,0E0,0E0,0E0,0E0,0E0,0E0,0E0,0E0,0E0,0E0,0E0,0E0,0E0,0E0,0E0,0E0,0E0,0E0,0E0,0E0,0E0,0E0,0E0,0E0,0E0],"parents":[2147483647,0,0,1,1,2,2,3,3,4,4,5,5,6,6,7,7,8,8,9,9,10,10,11,11,12,12,13,13,14,14,15,15,16,16,17,17,18,18,19,19,20,20,21,21,22,22,23,23,24,24,25,25,26,26,27,27,28,28,29,29,30,30,31,31,32,32,33,33,34,34,35,35,36,36,37,37,38,38,39,39,40,40,41,41,42,42,43,43,44,44,45,45,46,46,47,47,48,48,49,49,50,50,51,51,52,52,53,53,54,54,55,55,56,56,57,57,58,58,59,59,60,60,61,61,62,62],"right_children":[2,4,6,8,10,12,14,16,18,20,22,24,26,28,30,32,34,36,38,40,42,44,46,48,50,52,54,56,58,60,62,64,66,68,70,72,74,76,78,80,82,84,86,88,90,92,94,96,98,100,102,104,106,108,110,112,114,116,118,120,122,124,126,-1,-1,-1,-1,-1,-1,-1,-1,-1,-1,-1,-1,-1,-1,-1,-1,-1,-1,-1,-1,-1,-1,-1,-1,-1,-1,-1,-1,-1,-1,-1,-1,-1,-1,-1,-1,-1,-1,-1,-1,-1,-1,-1,-1,-1,-1,-1,-1,-1,-1,-1,-1,-1,-1,-1,-1,-1,-1,-1,-1,-1,-1,-1,-1],"split_conditions":[5.185692E-4,2.3095528E-4,8.432872E-4,1.2279884E-4,3.3244933E-4,-5.6640625E-1,2.5712752E0,6.543663E0,1.8390587E-1,-5.4015E0,-2.7255015E0,9.672327E4,7.643179E0,-6.381385E0,-9.692309E-1,2.793493E-2,1.6416495E-1,-7.130544E1,1.2186934E-1,4.0172176E0,-2.3909614E0,9E-1,1.6001031E0,7.875616E1,1.3131187E1,-3.425598E0,4.72E2,4.22E2,6.032955E0,8.14097E4,6.706283E0,-1.4713688E-1,7.684025E-2,1.2813804E-4,1.3014287E1,-3.225401E-3,-3.0680157E1,3.75E-2,3.5952341E-3,6.6798596E0,5.9286E4,-8.314696E-1,1.0367617E5,2.73E2,2.04252E0,5.779176E-4,-1.8652403E-1,-3.1928584E-1,3.0480743E2,5.4518744E2,3.67E2,1.326E3,-3.9259817E-2,6.3942816E2,7.9E1,1.422048E-3,1.44E2,5.4581158E-2,1.8438771E0,-3.596358E1,-9.314534E0,-2.4653716E0,4.578739E-1,4.0017924E-1,-9.3859985E-2,-3.2042798E-2,-1.2913209E-1,-4.581377E-2,1.21398024E-1,-8.367573E-2,-5.2668408E-2,6.096313E-1,-6.0793124E-2,-5.6313504E-2,-2.0357165E-2,1.5446235E-2,-4.4736966E-2,-5.922184E-2,3.189924E-2,2.5465405E-2,-1.33877015E-2,9.66295E-2,-2.5879754E-2,-2.171836E-2,-3.939483E-2,-1.9076518E-3,-3.3485442E-2,-8.548845E-3,-2.2141172E-2,1.1609148E-2,-4.8388172E-2,1.765171E-2,-4.4631477E-2,1.3054785E-2,-2.4535693E-2,1.7728064E-2,4.8400294E-2,4.8049362E-3,1.544487E-1,1.217213E-2,6.033255E-2,-1.0728288E-1,4.9582418E-2,6.8611484E-3,-7.518029E-2,4.224418E-2,9.203236E-3,-3.051021E-3,6.490901E-2,-1.4534804E-1,-4.6052087E-2,1.7748881E-2,4.82547E-2,-1.1352894E-1,-2.9617654E-2,6.515938E-2,3.729931E-2,3.6877003E-2,-1.807346E-4,4.9165615E-1,1.9017735E-1,-8.722711E-3,1.0391487E-1,5.0560024E-2,9.399482E-2,1.1280418E-2,8.9050144E-2],"split_indices":[50,52,50,54,50,132,68,53,113,35,114,29,122,122,132,153,116,39,131,115,111,61,150,51,112,122,137,137,122,28,122,75,119,52,49,11,122,136,11,65,2,132,29,142,151,46,132,144,16,15,142,137,131,15,142,11,142,156,150,40,122,122,131,0,0,0,0,0,0,0,0,0,0,0,0,0,0,0,0,0,0,0,0,0,0,0,0,0,0,0,0,0,0,0,0,0,0,0,0,0,0,0,0,0,0,0,0,0,0,0,0,0,0,0,0,0,0,0,0,0,0,0,0,0,0,0,0],"split_type":[0,0,0,0,0,0,0,0,0,0,0,0,0,0,0,0,0,0,0,0,0,0,0,0,0,0,0,0,0,0,0,0,0,0,0,0,0,0,0,0,0,0,0,0,0,0,0,0,0,0,0,0,0,0,0,0,0,0,0,0,0,0,0,0,0,0,0,0,0,0,0,0,0,0,0,0,0,0,0,0,0,0,0,0,0,0,0,0,0,0,0,0,0,0,0,0,0,0,0,0,0,0,0,0,0,0,0,0,0,0,0,0,0,0,0,0,0,0,0,0,0,0,0,0,0,0,0],"sum_hessian":[2.0959228E5,1.0894207E5,1.006502E5,3.1118896E4,7.782317E4,4.986345E4,5.0786758E4,8.187586E3,2.293131E4,3.2049379E4,4.5773793E4,1.4752E4,3.511145E4,4.0411586E4,1.0375173E4,2.4584827E3,5.7291035E3,4.781241E3,1.8150068E4,5.602759E3,2.6446621E4,3.71691E4,8.604689E3,8.291586E3,6.4604136E3,2.4690758E4,1.0420689E4,1.2262345E4,2.8149242E4,6.38069E2,9.737104E3,1.6557241E3,8.027586E2,1.0548966E3,4.674207E3,9.103448E0,4.7721377E3,7.7448276E3,1.0405241E4,2.7293794E3,2.8733794E3,1.9320275E4,7.1263447E3,3.3099586E4,4.0695173E3,5.838069E3,2.7666206E3,8.003862E3,2.8772415E2,6.280552E3,1.7986208E2,1.3879448E4,1.0811311E4,9.768275E3,6.524138E2,1.1447173E4,8.151724E2,1.7494621E4,1.0654621E4,2.3696552E2,4.0110345E2,7.450483E3,2.2866206E3,1.3793104E0,1.6543448E3,3.475862E1,7.68E2,1.0333793E3,2.151724E1,3.944E3,7.302069E2,6.0689654E0,3.0344827E0,1.0703448E3,3.701793E3,2.7972415E2,7.4651035E3,1.0267862E4,1.373793E2,1.1346207E3,1.5947587E3,6.262069E1,2.8107585E3,4.0394482E3,1.5280827E4,4.0954482E3,3.0308965E3,1.8370758E4,1.4728827E4,3.740138E3,3.293793E2,5.504552E3,3.3351724E2,1.1906207E3,1.576E3,3.5953103E3,4.408552E3,6.013793E1,2.2758621E2,5.675862E3,6.0468964E2,1.382069E2,4.165517E1,1.3069241E4,8.102069E2,8.0129653E3,2.7983447E3,9.369931E3,3.9834482E2,1.17793106E2,5.3462067E2,7.080552E3,4.3666206E3,2.6924136E2,5.45931E2,1.2596414E4,4.898207E3,7.12E3,3.5346206E3,1.848276E1,2.1848276E2,1.1586207E2,2.8524136E2,4.1886895E3,3.2617932E3,1.588138E3,6.984827E2],"tree_param":{"num_deleted":"0","num_feature":"162","num_nodes":"127","size_leaf_vector":"1"}},{"base_weights":[5.5362216E-7,1.709729E-1,-1.7079906E-1,1.3550837E-1,5.2782387E-1,-1.3912493E-1,-4.2742854E-1,2.0682366E-1,9.0120874E-2,7.263013E-1,2.3361753E-1,-2.1974997E-1,-8.6615786E-2,-1.9825755E-1,-5.6492233E-1,2.9774183E-1,8.1181005E-2,1.3658719E-1,8.500823E-3,6.562296E-1,9.113896E-1,3.5698274E-1,1.1463333E-1,-1.02985874E-1,-2.7169478E-1,-6.7297295E-2,-1.7006621E-1,-1.09741345E-1,-3.2784057E-1,-4.4537827E-1,-6.822628E-1,2.0739882E-1,3.495112E-1,1.4340262E-1,1.8261159E-2,2.0293763E-1,9.961288E-2,4.0908076E-2,-8.108386E-2,7.448496E-1,4.8979485E-1,9.5688254E-1,5.398106E-1,2.9616794E-1,5.760409E-1,1.8257487E-1,-9.48736E-2,-3.9811037E-2,-1.8750046E-1,-1.873046E-1,-3.1700638E-1,-6.3176885E-2,-3.1525773E-1,-1.3088416E-1,-2.8905407E-1,5.0753303E-2,-1.8290083E-1,-4.0862194E-1,-2.2530699E-1,-3.174041E-1,-5.400736E-1,-7.2374433E-1,-3.9003584E-1,9.801046E-2,4.3314848E-2,1.2713389E-1,8.8362716E-2,3.7724033E-2,1.11232065E-1,1.3250701E-2,-5.2682914E-2,1.0202923E-1,5.464996E-2,-4.1513316E-2,3.1865276E-2,9.4045615E-3,1.0054825E-1,-6.866059E-2,-8.052672E-3,2.0480533E-1,2.652999E-1,8.271689E-2,1.7118558E-1,3.136863E-1,2.533005E-1,2.0165117E-1,-6.36851E-2,4.0276192E-2,1.0971256E-1,1.327032E-1,2.4020784E-1,3.8866773E-2,9.6956454E-2,-4.5693588E-2,6.278145E-2,-8.979252E-5,-4.8810896E-2,-3.599234E-2,-7.6696284E-2,-3.8422905E-2,-8.298011E-2,-8.6418204E-2,-1.1705089E-1,-1.8029813E-2,-1.09581165E-1,-7.4445955E-3,-1.2210927E-1,-4.104783E-2,1.5867393E-1,-9.234696E-2,3.6587708E-2,2.5952933E-3,1.2492146E-1,-7.79544E-2,-2.9508946E-2,-5.9279196E-2,-1.7888716E-1,-8.527251E-2,9.752762E-4,1.2091774E-2,-1.0979437E-1,-1.1066889E-1,-1.7942588E-1,-1.931222E-1,-2.34955E-1,8.341637E-2,-1.392297E-1],"categories":[],"categories_nodes":[],"categories_segments":[],"categories_sizes":[],"default_left":[0,0,0,0,0,0,0,0,0,0,0,0,0,0,0,0,0,0,0,0,0,0,0,0,0,0,0,0,0,0,0,0,0,0,0,0,0,0,0,0,0,0,0,0,0,0,0,0,0,0,0,0,0,0,0,0,0,0,0,0,0,0,0,0,0,0,0,0,0,0,0,0,0,0,0,0,0,0,0,0,0,0,0,0,0,0,0,0,0,0,0,0,0,0,0,0,0,0,0,0,0,0,0,0,0,0,0,0,0,0,0,0,0,0,0,0,0,0,0,0,0,0,0,0,0,0,0],"id":2,"left_children":[1,3,5,7,9,11,13,15,17,19,21,23,25,27,29,31,33,35,37,39,41,43,45,47,49,51,53,55,57,59,61,63,65,67,69,71,73,75,77,79,81,83,85,87,89,91,93,95,97,99,101,103,105,107,109,111,113,115,117,119,121,123,125,-1,-1,-1,-1,-1,-1,-1,-1,-1,-1,-1,-1,-1,-1,-1,-1,-1,-1,-1,-1,-1,-1,-1,-1,-1,-1,-1,-1,-1,-1,-1,-1,-1,-1,-1,-1,-1,-1,-1,-1,-1,-1,-1,-1,-1,-1,-1,-1,-1,-1,-1,-1,-1,-1,-1,-1,-1,-1,-1,-1,-1,-1,-1,-1],"loss_changes":[1.0816686E4,2.3426084E3,1.5061392E3,5.4499243E2,9.7694336E2,6.982715E2,6.413303E2,7.480154E2,3.902378E2,1.2899023E2,9.892865E1,3.94542E2,1.6102356E2,8.754053E1,1.7816553E2,1.7761499E2,1.07633514E2,1.6083435E2,1.0837588E2,1.0659033E2,4.582422E1,4.392276E1,4.889273E1,1.0694411E2,1.7210303E2,8.285391E1,8.750183E1,5.3291924E1,2.5570007E1,7.623828E1,7.752588E1,1.0401886E2,9.846826E1,5.5445892E1,6.867496E1,6.678058E1,6.620004E1,7.7100075E1,7.948731E1,4.0409912E1,4.3486694E1,2.3496826E1,3.0137695E1,2.9143402E1,2.1215607E1,1.9290611E1,1.4732376E1,5.56661E1,3.9401764E1,8.316553E1,6.192285E1,7.415765E1,3.5323593E1,5.5456924E1,3.591324E1,2.18823E1,2.025196E1,6.8462555E1,1.842154E1,4.6650604E1,3.575061E1,2.6219482E1,3.9716293E1,0E0,0E0,0E0,0E0,0E0,0E0,0E0,0E0,0E0,0E0,0E0,0E0,0E0,0E0,0E0,0E0,0E0,0E0,0E0,0E0,0E0,0E0,0E0,0E0,0E0,0E0,0E0,0E0,0E0,0E0,0E0,0E0,0E0,0E0,0E0,0E0,0E0,0E0,0E0,0E0,0E0,0E0,0E0,0E0,0E0,0E0,0E0,0E0,0E0,0E0,0E0,0E0,0E0,0E0,0E0,0E0,0E0,0E0,0E0,0E0,0E0,0E0,0E0,0E0],"parents":[2147483647,0,0,1,1,2,2,3,3,4,4,5,5,6,6,7,7,8,8,9,9,10,10,11,11,12,12,13,13,14,14,15,15,16,16,17,17,18,18,19,19,20,20,21,21,22,22,23,23,24,24,25,25,26,26,27,27,28,28,29,29,30,30,31,31,32,32,33,33,34,34,35,35,36,36,37,37,38,38,39,39,40,40,41,41,42,42,43,43,44,44,45,45,46,46,47,47,48,48,49,49,50,50,51,51,52,52,53,53,54,54,55,55,56,56,57,57,58,58,59,59,60,60,61,61,62,62],"right_children":[2,4,6,8,10,12,14,16,18,20,22,24,26,28,30,32,34,36,38,40,42,44,46,48,50,52,54,56,58,60,62,64,66,68,70,72,74,76,78,80,82,84,86,88,90,92,94,96,98,100,102,104,106,108,110,112,114,116,118,120,122,124,126,-1,-1,-1,-1,-1,-1,-1,-1,-1,-1,-1,-1,-1,-1,-1,-1,-1,-1,-1,-1,-1,-1,-1,-1,-1,-1,-1,-1,-1,-1,-1,-1,-1,-1,-1,-1,-1,-1,-1,-1,-1,-1,-1,-1,-1,-1,-1,-1,-1,-1,-1,-1,-1,-1,-1,-1,-1,-1,-1,-1,-1,-1,-1,-1],"split_conditions":[-5.896749E-1,1.292E3,1.298E3,-3.2556817E-1,-3.425598E0,-2.5460196E-1,1.9939432E0,-7.21182E0,-1.6433727E1,9.692309E-1,-1.8569882E0,4.030762E0,-4.623052E0,7.980692E-1,1.36E3,-4.3388373E-1,-3.5926797E0,-9.783922E0,7.2594166E-1,-6.381385E0,9.9785894E-1,1.7773024E1,1.4175715E1,2.0926023E1,4.5471832E1,8.875992E0,1.9635065E1,-1.5288433E1,6.2E1,6.032955E0,1.422E3,-6.3226966E-5,-1.5202678E1,7.271064E2,4.19E2,-7.818315E-1,-3.7906403E1,2.0902667E0,8.268011E4,5.173169E-4,-5.03774E-1,-5.590568E0,3.4191868E0,1.5833333E-1,-2.3344536E-1,1.6697697E1,7.707497E-1,7.437197E-1,4.658282E2,6.6193933E0,1.17537394E-1,1.2236145E5,4.912927E-1,1.2234944E5,6.791667E-1,1.7325779E0,-7.3751677E-3,2.3E1,1.9516894E0,2.856042E-4,2.0669523E-4,-2.419219E-1,1.374849E1,9.801046E-2,4.3314848E-2,1.2713389E-1,8.8362716E-2,3.7724033E-2,1.11232065E-1,1.3250701E-2,-5.2682914E-2,1.0202923E-1,5.464996E-2,-4.1513316E-2,3.1865276E-2,9.4045615E-3,1.0054825E-1,-6.866059E-2,-8.052672E-3,2.0480533E-1,2.652999E-1,8.271689E-2,1.7118558E-1,3.136863E-1,2.533005E-1,2.0165117E-1,-6.36851E-2,4.0276192E-2,1.0971256E-1,1.327032E-1,2.4020784E-1,3.8866773E-2,9.6956454E-2,-4.5693588E-2,6.278145E-2,-8.979252E-5,-4.8810896E-2,-3.599234E-2,-7.6696284E-2,-3.8422905E-2,-8.298011E-2,-8.6418204E-2,-1.1705089E-1,-1.8029813E-2,-1.09581165E-1,-7.4445955E-3,-1.2210927E-1,-4.104783E-2,1.5867393E-1,-9.234696E-2,3.6587708E-2,2.5952933E-3,1.2492146E-1,-7.79544E-2,-2.9508946E-2,-5.9279196E-2,-1.7888716E-1,-8.527251E-2,9.752762E-4,1.2091774E-2,-1.0979437E-1,-1.1066889E-1,-1.7942588E-1,-1.931222E-1,-2.34955E-1,8.341637E-2,-1.392297E-1],"split_indices":[122,137,137,131,122,131,122,122,122,132,122,122,117,122,137,133,122,114,116,122,132,65,124,64,53,147,65,121,142,122,137,76,122,16,142,133,121,151,3,45,131,122,147,48,131,65,149,119,16,124,132,29,77,3,136,144,156,142,151,46,50,131,53,0,0,0,0,0,0,0,0,0,0,0,0,0,0,0,0,0,0,0,0,0,0,0,0,0,0,0,0,0,0,0,0,0,0,0,0,0,0,0,0,0,0,0,0,0,0,0,0,0,0,0,0,0,0,0,0,0,0,0,0,0,0,0,0],"split_type":[0,0,0,0,0,0,0,0,0,0,0,0,0,0,0,0,0,0,0,0,0,0,0,0,0,0,0,0,0,0,0,0,0,0,0,0,0,0,0,0,0,0,0,0,0,0,0,0,0,0,0,0,0,0,0,0,0,0,0,0,0,0,0,0,0,0,0,0,0,0,0,0,0,0,0,0,0,0,0,0,0,0,0,0,0,0,0,0,0,0,0,0,0,0,0,0,0,0,0,0,0,0,0,0,0,0,0,0,0,0,0,0,0,0,0,0,0,0,0,0,0,0,0,0,0,0,0],"sum_hessian":[3.704069E5,1.8510984E5,1.8529706E5,1.6837755E5,1.6732303E4,1.6494098E5,2.0356066E4,6.548322E4,1.0289433E5,9.990824E3,6.7414785E3,6.5052734E4,9.988826E4,7.634135E3,1.2721933E4,3.7990777E4,2.749244E4,6.5566586E4,3.7327746E4,7.2504536E3,2.740371E3,3.3088237E3,3.4326548E3,2.0030402E4,4.5022332E4,8.111274E4,1.8775516E4,4.536896E3,3.0972385E3,6.30417E3,6.4177627E3,1.3841287E4,2.414949E4,1.3822273E4,1.3670166E4,2.3461105E4,4.2105477E4,2.7411998E4,9.915746E3,4.7289805E3,2.521473E3,2.4400564E3,3.0031464E2,2.5916763E3,7.1714746E2,2.5921638E3,8.4049097E2,1.1463146E4,8.567255E3,1.5730441E4,2.929189E4,7.978814E4,1.324602E3,1.4126001E4,4.649514E3,1.4206443E3,3.116252E3,1.7307094E3,1.366529E3,2.6828433E3,3.6213264E3,5.6187114E3,7.9905145E2,4.782608E3,9.058679E3,1.0268713E4,1.3880776E4,1.2827726E4,9.9454846E2,1.2059388E4,1.6107786E3,3.083588E3,2.0377518E4,1.1364178E3,4.096906E4,2.6550545E4,8.6145447E2,2.6613923E3,7.2543535E3,3.2751846E3,1.4537959E3,6.9228375E2,1.8291892E3,1.3597037E3,1.0803527E3,2.5546245E2,4.485219E1,7.795505E2,1.8121259E3,4.51447E2,2.6570044E2,1.8837919E3,7.08372E2,7.07397E2,1.33094E2,8.674998E3,2.7881484E3,4.304835E3,4.2624204E3,9.458937E3,6.271506E3,2.0991799E4,8.300092E3,7.89847E4,8.0343915E2,3.1835303E2,1.006249E3,1.4000707E4,1.2529361E2,4.446704E3,2.0280989E2,1.2748746E3,1.457696E2,1.6302794E3,1.4859724E3,8.1562726E2,9.150821E2,1.086203E3,2.8032617E2,3.2079065E2,2.3620527E3,9.1849475E2,2.7028318E3,2.4000796E3,3.2186318E3,7.946638E1,7.195851E2],"tree_param":{"num_deleted":"0","num_feature":"162","num_nodes":"127","size_leaf_vector":"1"}},{"base_weights":[-2.4281515E-4,-1.19605176E-1,1.3763082E-1,-9.281973E-2,-2.8609243E-1,1.1027663E-1,4.3390405E-1,-3.9932556E-2,-1.3929595E-1,-3.8027358E-1,-9.7384185E-2,1.6916852E-1,7.470397E-2,2.663135E-1,5.6739116E-1,-6.879517E-2,1.4802928E-2,-1.8667857E-1,-8.9180104E-2,-2.717273E-1,-4.6506506E-1,-1.491322E-1,5.2344676E-2,7.791984E-2,2.2643812E-1,1.1203878E-1,3.464717E-2,1.3327208E-1,3.4775722E-1,4.2945614E-1,7.112601E-1,-2.4445606E-2,-1.2888455E-1,1.7546937E-1,-5.176917E-3,-2.5897223E-1,-8.163585E-2,-1.375641E-1,-5.168541E-2,-4.3156105E-1,-2.1361679E-1,-5.266583E-1,-3.2743764E-1,-9.7162955E-2,-2.817681E-1,-6.489271E-2,3.0342123E-1,3.861442E-1,6.94161E-2,1.2621608E-1,2.5695407E-1,8.243448E-2,1.9157754E-1,6.223148E-5,9.961621E-2,1.0788667E-1,8.361916E-1,2.4062611E-1,4.689143E-1,3.6763164E-1,6.296124E-1,7.4068654E-1,3.9862305E-1,-3.2398958E-2,-2.7747135E-4,-3.4803074E-2,-1.095492E-1,7.735595E-2,4.1382364E-3,-1.7460186E-2,1.262535E-2,-9.37693E-2,-6.509088E-2,-1.1161896E-1,-2.0909552E-2,-5.3354487E-2,-2.3534186E-2,2.924295E-2,-2.2437992E-2,-1.3608156E-1,1.4042824E-2,-1.0506791E-1,-4.5651104E-2,-1.7140718E-1,-1.3213621E-1,-7.216481E-2,-1.39798E-1,-1.9544886E-2,-1.2073737E-1,-1.1303475E-1,-1.5427186E-2,-1.6050021E-1,-5.1692477E-3,1.8708326E-1,3.7622064E-2,2.107311E-2,1.9407672E-1,8.1546055E-3,3.6470283E-2,-5.569857E-2,4.6786383E-2,6.547329E-2,1.0449374E-1,1.2511809E-2,3.748813E-2,1.4569058E-2,7.1854405E-2,-8.276444E-3,2.7681757E-2,4.3028675E-2,2.726592E-3,1.4328884E-1,2.2556059E-2,-1.5947297E-1,2.8945312E-1,4.7709182E-2,1.0845595E-1,6.4442635E-2,1.5754634E-1,1.1749069E-1,-8.030994E-2,1.449578E-1,2.3305362E-1,1.9331284E-1,2.461738E-1,-8.752296E-2,1.6238807E-1],"categories":[],"categories_nodes":[],"categories_segments":[],"categories_sizes":[],"default_left":[0,0,0,0,0,0,0,0,0,0,0,0,0,0,0,0,0,0,0,0,0,0,0,0,0,0,0,0,0,0,0,0,0,0,0,0,0,0,0,0,0,0,0,0,0,0,0,0,0,0,0,0,0,0,0,0,0,0,0,0,0,0,0,0,0,0,0,0,0,0,0,0,0,0,0,0,0,0,0,0,0,0,0,0,0,0,0,0,0,0,0,0,0,0,0,0,0,0,0,0,0,0,0,0,0,0,0,0,0,0,0,0,0,0,0,0,0,0,0,0,0,0,0,0,0,0,0],"id":3,"left_children":[1,3,5,7,9,11,13,15,17,19,21,23,25,27,29,31,33,35,37,39,41,43,45,47,49,51,53,55,57,59,61,63,65,67,69,71,73,75,77,79,81,83,85,87,89,91,93,95,97,99,101,103,105,107,109,111,113,115,117,119,121,123,125,-1,-1,-1,-1,-1,-1,-1,-1,-1,-1,-1,-1,-1,-1,-1,-1,-1,-1,-1,-1,-1,-1,-1,-1,-1,-1,-1,-1,-1,-1,-1,-1,-1,-1,-1,-1,-1,-1,-1,-1,-1,-1,-1,-1,-1,-1,-1,-1,-1,-1,-1,-1,-1,-1,-1,-1,-1,-1,-1,-1,-1,-1,-1,-1],"loss_changes":[6.044046E3,8.7779956E2,1.381071E3,4.1679077E2,4.8480957E2,3.268291E2,3.22083E2,1.2530345E2,2.1430164E2,1.6736108E2,7.0389565E1,3.0699634E2,1.4545837E2,6.9171295E1,1.5878638E2,1.3839044E2,8.790811E1,3.5226843E2,7.956787E1,7.405676E1,8.642236E1,4.650609E1,6.871696E1,5.935559E1,1.1035962E2,1.18526184E2,1.05435555E2,4.3222195E1,5.131018E1,5.0447083E1,3.5791138E1,5.8719574E1,6.703891E1,4.0338646E1,6.104004E1,6.1786743E1,6.55455E1,4.559198E1,8.5193184E1,2.2457397E1,4.9108673E1,2.693457E1,3.7942047E1,4.739386E1,4.156276E1,3.565633E1,4.227443E1,5.004664E1,4.856077E1,7.8187775E1,9.777466E1,6.3541656E1,9.3598755E1,7.808188E1,6.465384E1,2.830232E1,1.5374359E1,2.070372E1,2.6441772E1,4.7858856E1,2.0429169E1,2.704773E1,3.360726E1,0E0,0E0,0E0,0E0,0E0,0E0,0E0,0E0,0E0,0E0,0E0,0E0,0E0,0E0,0E0,0E0,0E0,0E0,0E0,0E0,0E0,0E0,0E0,0E0,0E0,0E0,0E0,0E0,0E0,0E0,0E0,0E0,0E0,0E0,0E0,0E0,0E0,0E0,0E0,0E0,0E0,0E0,0E0,0E0,0E0,0E0,0E0,0E0,0E0,0E0,0E0,0E0,0E0,0E0,0E0,0E0,0E0,0E0,0E0,0E0,0E0,0E0,0E0,0E0],"parents":[2147483647,0,0,1,1,2,2,3,3,4,4,5,5,6,6,7,7,8,8,9,9,10,10,11,11,12,12,13,13,14,14,15,15,16,16,17,17,18,18,19,19,20,20,21,21,22,22,23,23,24,24,25,25,26,26,27,27,28,28,29,29,30,30,31,31,32,32,33,33,34,34,35,35,36,36,37,37,38,38,39,39,40,40,41,41,42,42,43,43,44,44,45,45,46,46,47,47,48,48,49,49,50,50,51,51,52,52,53,53,54,54,55,55,56,56,57,57,58,58,59,59,60,60,61,61,62,62],"right_children":[2,4,6,8,10,12,14,16,18,20,22,24,26,28,30,32,34,36,38,40,42,44,46,48,50,52,54,56,58,60,62,64,66,68,70,72,74,76,78,80,82,84,86,88,90,92,94,96,98,100,102,104,106,108,110,112,114,116,118,120,122,124,126,-1,-1,-1,-1,-1,-1,-1,-1,-1,-1,-1,-1,-1,-1,-1,-1,-1,-1,-1,-1,-1,-1,-1,-1,-1,-1,-1,-1,-1,-1,-1,-1,-1,-1,-1,-1,-1,-1,-1,-1,-1,-1,-1,-1,-1,-1,-1,-1,-1,-1,-1,-1,-1,-1,-1,-1,-1,-1,-1,-1,-1,-1,-1,-1],"split_conditions":[9.382189E-1,9.6875E-1,1.309E3,4.3915226E1,-1.5643576E0,-2.923717E-1,4.030762E0,-1.4471846E1,-2.5460196E-1,-5.03774E-1,-8.7155744E-2,6.706283E0,4.127426E-4,-3.007058E-1,-3.3791673E-1,2.2E2,1.4542125E1,-5.022449E0,-1.961645E1,-2.2252093E-1,-3.2586098E0,-2.3344536E-1,2.1932251E1,6.666667E-2,-1.4663715E1,6.317775E-2,3.1302364E1,1.7231533E-2,2.3159966E0,1.451564E1,-8.7155744E-2,-1.8157623E1,5.25668E-4,8.8600725E-2,2.491621E0,-1.3276037E1,-1.428633E-2,1.1957319E0,2.4166666E-1,1.5428136E-1,-2.51838E1,2.051065E1,6.234185E-4,9.239166E-3,2.1441841E-1,-8.947963E-3,9.500769E-1,4.782127E-4,9.661043E4,5.8392E4,7.1458334E-1,2.7780058E0,7.4777894E0,7.8062063E-1,3.5E2,2.3089111E2,-1.9127874E1,1.2504775E1,-1.8826855E1,4.5207127E1,-1.9395046E-3,9.692309E-1,1.3997151E1,-3.2398958E-2,-2.7747135E-4,-3.4803074E-2,-1.095492E-1,7.735595E-2,4.1382364E-3,-1.7460186E-2,1.262535E-2,-9.37693E-2,-6.509088E-2,-1.1161896E-1,-2.0909552E-2,-5.3354487E-2,-2.3534186E-2,2.924295E-2,-2.2437992E-2,-1.3608156E-1,1.4042824E-2,-1.0506791E-1,-4.5651104E-2,-1.7140718E-1,-1.3213621E-1,-7.216481E-2,-1.39798E-1,-1.9544886E-2,-1.2073737E-1,-1.1303475E-1,-1.5427186E-2,-1.6050021E-1,-5.1692477E-3,1.8708326E-1,3.7622064E-2,2.107311E-2,1.9407672E-1,8.1546055E-3,3.6470283E-2,-5.569857E-2,4.6786383E-2,6.547329E-2,1.0449374E-1,1.2511809E-2,3.748813E-2,1.4569058E-2,7.1854405E-2,-8.276444E-3,2.7681757E-2,4.3028675E-2,2.726592E-3,1.4328884E-1,2.2556059E-2,-1.5947297E-1,2.8945312E-1,4.7709182E-2,1.0845595E-1,6.4442635E-2,1.5754634E-1,1.1749069E-1,-8.030994E-2,1.449578E-1,2.3305362E-1,1.9331284E-1,2.461738E-1,-8.752296E-2,1.6238807E-1],"split_indices":[122,136,137,53,122,131,122,122,131,131,131,122,46,131,131,137,53,122,122,134,122,131,121,136,121,156,122,12,122,122,131,39,46,154,109,39,11,150,48,156,38,118,52,59,122,12,150,46,29,3,136,109,118,119,142,16,121,121,124,118,149,132,51,0,0,0,0,0,0,0,0,0,0,0,0,0,0,0,0,0,0,0,0,0,0,0,0,0,0,0,0,0,0,0,0,0,0,0,0,0,0,0,0,0,0,0,0,0,0,0,0,0,0,0,0,0,0,0,0,0,0,0,0,0,0,0,0],"split_type":[0,0,0,0,0,0,0,0,0,0,0,0,0,0,0,0,0,0,0,0,0,0,0,0,0,0,0,0,0,0,0,0,0,0,0,0,0,0,0,0,0,0,0,0,0,0,0,0,0,0,0,0,0,0,0,0,0,0,0,0,0,0,0,0,0,0,0,0,0,0,0,0,0,0,0,0,0,0,0,0,0,0,0,0,0,0,0,0,0,0,0,0,0,0,0,0,0,0,0,0,0,0,0,0,0,0,0,0,0,0,0,0,0,0,0,0,0,0,0,0,0,0,0,0,0,0,0],"sum_hessian":[3.6726262E5,1.968459E5,1.7041673E5,1.695666E5,2.7279312E4,1.5601373E5,1.4402998E4,7.931393E4,9.0252664E4,1.8196652E4,9.082661E3,5.8748926E4,9.726481E4,6.3871035E3,8.0158945E3,5.1930277E4,2.738365E4,4.638999E4,4.386268E4,7.9822856E3,1.0214366E4,6.749842E3,2.332819E3,2.2654875E4,3.609405E4,5.0341953E4,4.6922855E4,2.4262954E3,3.9608079E3,4.094377E3,3.9215176E3,2.9879113E4,2.2051166E4,3.0278262E3,2.4355824E4,2.747759E4,1.8912396E4,1.914931E4,2.4713367E4,2.1266045E3,5.855681E3,7.0544272E3,3.1599387E3,4.8509E3,1.8989417E3,1.5907689E3,7.4205023E2,6.070617E2,2.2047812E4,8.426021E3,2.766803E4,3.6688535E4,1.365342E4,3.062256E4,1.6300294E4,2.342839E3,8.345639E1,2.1036643E3,1.8571436E3,3.1303179E3,9.64059E2,3.5829126E3,3.3860483E2,6.5628345E3,2.331628E4,2.0913148E4,1.1380167E3,2.005369E3,1.0224573E3,1.1478071E4,1.2877752E4,1.2070344E4,1.5407247E4,7.454693E2,1.8166928E4,1.1387485E4,7.761826E3,3.314565E3,2.1398803E4,2.0329731E3,9.363123E1,1.8152543E3,4.040427E3,4.6418774E3,2.4125498E3,1.9437491E3,1.2161896E3,4.391608E3,4.5929218E2,1.3439441E3,5.549975E2,1.4549265E2,1.4452762E3,2.642492E2,4.7780103E2,2.750916E2,3.3197012E2,1.2183067E4,9.864746E3,7.330483E2,7.692973E3,1.943608E4,8.231947E3,1.8741338E4,1.7947197E4,3.4281143E3,1.0225306E4,2.3558854E4,7.0637075E3,1.0983848E4,5.3164463E3,1.8925797E2,2.153581E3,6.905756E0,7.655063E1,1.2573495E3,8.4631494E2,3.3742065E2,1.5197229E3,3.016724E3,1.135936E2,4.8551132E2,4.7854773E2,1.6286487E3,1.9542639E3,5.781239E1,2.8079242E2],"tree_param":{"num_deleted":"0","num_feature":"162","num_nodes":"127","size_leaf_vector":"1"}},{"base_weights":[7.732461E-4,-9.054619E-2,6.7577034E-2,-1.8774986E-1,-6.4555585E-2,2.4583748E-2,1.1112683E-1,-2.4691986E-1,-1.4922175E-1,-1.0167949E-1,-4.628891E-2,5.85703E-3,5.4808076E-2,8.5809484E-2,1.4723963E-1,-3.3480147E-1,-2.2412707E-1,-1.5479098E-1,5.766814E-2,-1.7975652E-1,-9.107851E-2,-5.787113E-2,-1.844031E-2,2.777839E-2,-2.3189109E-2,4.1704796E-2,1.1514101E-1,7.4250594E-2,1.4797957E-1,1.5911354E-1,5.717439E-2,-3.377986E-1,4.1405204E-1,-2.2535214E-1,9.888126E-1,-1.3767967E-1,-2.0672119E-1,2.577419E-2,1.4407902E0,-1.9680755E-1,2.4168525E-2,-2.3329543E-2,-1.065072E-1,-2.0151544E-2,-7.686308E-2,8.481389E-3,-6.055954E-2,5.4065147E-3,5.6573212E-2,1.9037019E-1,-2.6963877E-2,1.2767583E-2,6.828442E-2,1.4095576E-1,-6.958294E-2,5.767581E-2,1.1963303E-1,3.9908355E-1,1.3106711E-1,4.067647E-1,1.5415663E-1,1.7430866E-4,1.4861684E-1,-1.11512184E-1,-6.772416E-2,-4.2481765E-2,-7.2677486E-2,6.3361764E-1,-1.2628825E-1,-4.1731652E-2,2.0254222E-1,-5.2843332E-2,-9.497216E-2,2.3581623E-1,-4.560706E-3,6.587999E-1,-2.749016E-2,-6.267842E-2,3.0512203E-2,-7.113673E-2,1.01286255E-1,-9.4605815E-3,8.7997325E-2,-2.1487689E-2,-3.7662484E-2,-1.0910274E-2,1.8386127E-2,-2.4692224E-2,1.5010411E-2,5.1129557E-2,-8.807266E-4,2.836708E-1,-1.8991789E-2,-3.601831E-2,5.1665343E-3,2.7934678E-2,4.915413E-3,2.4296228E-2,2.5623214E-1,-5.2936957E-3,-3.1378716E-2,-6.0882685E-3,1.7369457E-2,2.380242E-2,-1.6430777E-2,4.01392E-2,1.9614872E-1,3.2588595E-1,-2.4744201E-2,3.4865465E-2,1.3055879E-2,1.2065093E-1,3.3196237E-2,1.8217948E-1,1.0435766E-2,5.8174916E-2,2.1743983E-2,8.442806E-2,2.1012321E-1,1.0095806E-1,4.4592615E-2,9.696109E-2,-5.908031E-3,2.8212976E-2,1.6356903E-1],"categories":[],"categories_nodes":[],"categories_segments":[],"categories_sizes":[],"default_left":[0,0,0,0,0,0,0,0,0,0,0,0,0,0,0,0,0,0,0,0,0,0,0,0,0,0,0,0,0,0,0,0,0,0,0,0,0,0,0,0,0,0,0,0,0,0,0,0,0,0,0,0,0,0,0,0,0,0,0,0,0,0,0,0,0,0,0,0,0,0,0,0,0,0,0,0,0,0,0,0,0,0,0,0,0,0,0,0,0,0,0,0,0,0,0,0,0,0,0,0,0,0,0,0,0,0,0,0,0,0,0,0,0,0,0,0,0,0,0,0,0,0,0,0,0],"id":4,"left_children":[1,3,5,7,9,11,13,15,17,19,21,23,25,27,29,31,33,35,37,39,41,43,45,47,49,51,53,55,57,59,61,63,-1,65,67,69,71,73,75,77,79,81,83,85,87,89,91,93,95,97,99,101,103,105,107,109,111,113,115,117,119,121,123,-1,-1,-1,-1,-1,-1,-1,-1,-1,-1,-1,-1,-1,-1,-1,-1,-1,-1,-1,-1,-1,-1,-1,-1,-1,-1,-1,-1,-1,-1,-1,-1,-1,-1,-1,-1,-1,-1,-1,-1,-1,-1,-1,-1,-1,-1,-1,-1,-1,-1,-1,-1,-1,-1,-1,-1,-1,-1,-1,-1,-1,-1],"loss_changes":[1.2767794E3,2.2337396E2,2.2630847E2,4.248877E1,4.7307343E1,3.4426777E1,5.4886414E1,1.4657135E1,1.3029114E1,1.9026611E1,1.508197E1,2.3914286E1,1.83908E1,2.535736E1,2.6454468E1,8.241287E0,8.905426E0,9.749786E0,1.3061882E1,9.564697E0,2.1173767E1,2.3657173E1,1.5577331E1,1.3787996E1,1.302742E1,1.4704124E1,1.9805977E1,2.2385605E1,2.3446915E1,2.6775574E1,1.5031704E1,5.656479E0,0E0,8.231415E0,1.0518903E1,9.689774E0,9.098328E0,9.085949E0,7.925892E0,9.201736E0,1.752843E1,9.776885E0,1.0946732E1,1.4609915E1,1.5179581E1,1.5497753E1,1.486191E1,1.786019E1,1.3742147E1,2.030959E1,1.1481443E1,1.3660826E1,1.356287E1,1.3286156E1,7.687937E0,1.8067467E1,2.0156395E1,2.6422932E1,1.9080643E1,1.5570091E1,2.1507324E1,1.1414387E1,2.3917843E1,0E0,0E0,0E0,0E0,0E0,0E0,0E0,0E0,0E0,0E0,0E0,0E0,0E0,0E0,0E0,0E0,0E0,0E0,0E0,0E0,0E0,0E0,0E0,0E0,0E0,0E0,0E0,0E0,0E0,0E0,0E0,0E0,0E0,0E0,0E0,0E0,0E0,0E0,0E0,0E0,0E0,0E0,0E0,0E0,0E0,0E0,0E0,0E0,0E0,0E0,0E0,0E0,0E0,0E0,0E0,0E0,0E0,0E0,0E0,0E0,0E0,0E0],"parents":[2147483647,0,0,1,1,2,2,3,3,4,4,5,5,6,6,7,7,8,8,9,9,10,10,11,11,12,12,13,13,14,14,15,15,16,16,17,17,18,18,19,19,20,20,21,21,22,22,23,23,24,24,25,25,26,26,27,27,28,28,29,29,30,30,31,31,33,33,34,34,35,35,36,36,37,37,38,38,39,39,40,40,41,41,42,42,43,43,44,44,45,45,46,46,47,47,48,48,49,49,50,50,51,51,52,52,53,53,54,54,55,55,56,56,57,57,58,58,59,59,60,60,61,61,62,62],"right_children":[2,4,6,8,10,12,14,16,18,20,22,24,26,28,30,32,34,36,38,40,42,44,46,48,50,52,54,56,58,60,62,64,-1,66,68,70,72,74,76,78,80,82,84,86,88,90,92,94,96,98,100,102,104,106,108,110,112,114,116,118,120,122,124,-1,-1,-1,-1,-1,-1,-1,-1,-1,-1,-1,-1,-1,-1,-1,-1,-1,-1,-1,-1,-1,-1,-1,-1,-1,-1,-1,-1,-1,-1,-1,-1,-1,-1,-1,-1,-1,-1,-1,-1,-1,-1,-1,-1,-1,-1,-1,-1,-1,-1,-1,-1,-1,-1,-1,-1,-1,-1,-1,-1,-1,-1],"split_conditions":[4.4074096E-4,1.5896169E-4,7.7708176E-4,1.2279884E-4,2.583778E-4,5.5160385E-1,2.919786E1,1.356553E0,4.2366155E-4,-5.4681698E1,7.296288E-1,9.672327E4,8.9588904E-1,1.5768373E1,1E0,8.982333E-4,1.2E1,8.681988E-1,8E-1,7.376205E-1,-2.5352392E-1,-2.2103014E1,1.04143125E5,6.0583826E-4,-2.0213417E1,5.75102E-4,6.481705E-1,1.6046187E-4,5.6723336E4,1.0699357E0,1.565311E-1,1.1989249E0,4.1405204E-1,1.4873977E-1,-6.05294E-1,1.1E1,4.841402E-1,-2.266027E-2,1.58E2,3.4486684E-3,5.870506E-1,3E0,1.8615607E-4,2.2825018E1,2.5587107E-4,-9.890159E-1,-3.3580025E1,-5.2157708E-2,1.458862E-1,7.416667E-1,1.1787594E5,2.6663061E-2,-2.5223713E0,1.0466198E0,2.2662044E2,-1.8073769E1,-9.848077E-1,3.6381252E-2,-7.3751677E-3,8.2903755E-1,-2.8376987E1,-1.66134E-1,8.992868E0,-1.11512184E-1,-6.772416E-2,-4.2481765E-2,-7.2677486E-2,6.3361764E-1,-1.2628825E-1,-4.1731652E-2,2.0254222E-1,-5.2843332E-2,-9.497216E-2,2.3581623E-1,-4.560706E-3,6.587999E-1,-2.749016E-2,-6.267842E-2,3.0512203E-2,-7.113673E-2,1.01286255E-1,-9.4605815E-3,8.7997325E-2,-2.1487689E-2,-3.7662484E-2,-1.0910274E-2,1.8386127E-2,-2.4692224E-2,1.5010411E-2,5.1129557E-2,-8.807266E-4,2.836708E-1,-1.8991789E-2,-3.601831E-2,5.1665343E-3,2.7934678E-2,4.915413E-3,2.4296228E-2,2.5623214E-1,-5.2936957E-3,-3.1378716E-2,-6.0882685E-3,1.7369457E-2,2.380242E-2,-1.6430777E-2,4.01392E-2,1.9614872E-1,3.2588595E-1,-2.4744201E-2,3.4865465E-2,1.3055879E-2,1.2065093E-1,3.3196237E-2,1.8217948E-1,1.0435766E-2,5.8174916E-2,2.1743983E-2,8.442806E-2,2.1012321E-1,1.0095806E-1,4.4592615E-2,9.696109E-2,-5.908031E-3,2.8212976E-2,1.6356903E-1],"split_indices":[50,50,50,54,50,25,4,148,46,122,116,29,113,121,138,36,101,131,20,75,106,38,123,50,114,50,149,76,123,151,143,47,0,116,132,100,149,98,142,11,113,129,43,121,60,132,39,75,120,48,29,144,117,146,16,117,132,143,156,132,117,150,124,0,0,0,0,0,0,0,0,0,0,0,0,0,0,0,0,0,0,0,0,0,0,0,0,0,0,0,0,0,0,0,0,0,0,0,0,0,0,0,0,0,0,0,0,0,0,0,0,0,0,0,0,0,0,0,0,0,0,0,0,0,0],"split_type":[0,0,0,0,0,0,0,0,0,0,0,0,0,0,0,0,0,0,0,0,0,0,0,0,0,0,0,0,0,0,0,0,0,0,0,0,0,0,0,0,0,0,0,0,0,0,0,0,0,0,0,0,0,0,0,0,0,0,0,0,0,0,0,0,0,0,0,0,0,0,0,0,0,0,0,0,0,0,0,0,0,0,0,0,0,0,0,0,0,0,0,0,0,0,0,0,0,0,0,0,0,0,0,0,0,0,0,0,0,0,0,0,0,0,0,0,0,0,0,0,0,0,0,0,0],"sum_hessian":[2.092895E5,8.842033E4,1.2086917E5,1.8652945E4,6.976738E4,6.0824E4,6.004517E4,7.353823E3,1.1299122E4,2.3006338E4,4.6761043E4,3.7555902E4,2.32681E4,3.5300598E4,2.4744574E4,1.5116603E3,5.842163E3,1.1003182E4,2.9594083E2,2.7483765E3,2.025796E4,3.3024918E4,1.3736125E4,2.1402957E4,1.6152944E4,1.9117744E4,4.1503545E3,2.9768182E4,5.5324146E3,2.1861637E4,2.8829363E3,1.5098247E3,1.8355705E0,5.8370815E3,5.081258E0,8.278891E3,2.7242915E3,2.9026608E2,5.674724E0,2.5363376E3,2.12039E2,3.7581304E3,1.649983E4,1.1060303E4,2.1964615E4,8.380371E3,5.355753E3,1.2045502E4,9.357455E3,2.796939E2,1.5873251E4,9.153652E3,9.964092E3,3.6416755E3,5.0867896E2,2.1806264E4,7.9619175E3,3.4768228E2,5.1847324E3,4.2739926E2,2.1434238E4,1.776542E3,1.1063944E3,1.1572913E3,3.5253345E2,9.8200397E2,4.8550776E3,2.550765E0,2.530493E0,8.265221E3,1.3669693E1,2.1331477E3,5.911437E2,1.3914427E1,2.7635165E2,3.511274E0,2.16345E0,2.4376619E3,9.867562E1,1.157742E2,9.626479E1,3.6640803E3,9.405007E1,5.826758E3,1.0673073E4,9.224146E3,1.8361558E3,2.1061365E4,9.0324963E2,5.5097314E2,7.8293984E3,1.3645211E1,5.342108E3,1.0359094E3,1.1009592E4,4.900364E3,4.457092E3,2.4108545E2,3.860847E1,1.4173249E4,1.7000015E3,5.283565E3,3.8700876E3,9.142911E3,8.2118E2,3.59279E3,4.888566E1,4.695046E0,5.039839E2,4.2448135E3,1.7561451E4,2.4388437E2,7.718033E3,2.208236E2,1.2685868E2,2.5002668E3,2.6844656E3,3.0091653E2,1.2648274E2,6.2735114E2,2.0806887E4,1.0204971E2,1.6744923E3,9.736572E2,1.3273717E2],"tree_param":{"num_deleted":"0","num_feature":"162","num_nodes":"125","size_leaf_vector":"1"}},{"base_weights":[-1.9685998E-4,1.3159369E-1,-1.2525366E-1,1.0164565E-1,4.1694945E-1,-1.923726E-1,-6.063362E-2,1.611997E-1,6.990294E-2,5.189357E-1,2.3872125E-1,-1.6453347E-1,-3.777499E-1,-3.3804495E-2,-1.1276015E-1,2.2693029E-1,7.34919E-2,1.0492704E-1,5.0506466E-3,6.762692E-1,4.489358E-1,2.83797E-1,-7.882061E-3,-6.059246E-2,-2.0370871E-1,-1.0839547E-1,-5.102647E-1,-2.9420262E-2,-3.14945E-1,-8.587112E-2,-2.2715577E-1,3.121552E-1,1.7505568E-1,1.124836E-1,6.6888314E-3,1.3636407E-1,5.3302974E-2,3.7196055E-2,-6.155657E-2,4.151003E-1,7.1995807E-1,3.3133972E-1,5.074386E-1,1.933973E-1,4.2380798E-1,-7.554436E-2,2.2030713E-1,-2.957705E-2,-1.8926205E-1,-1.0554556E-1,-2.3368022E-1,-1.1953617E-3,-2.1333534E-1,-4.2753863E-1,-6.206351E-1,-2.5051722E-2,-2.9811698E-1,-4.0531883E-1,-7.2039906E-3,-1.379271E-1,-4.8713904E-2,-2.3939393E-1,2.3327935E-1,1.0269914E-1,5.116621E-2,2.5848512E-2,7.005723E-2,2.6478456E-2,7.865971E-2,-1.0006305E-2,6.063131E-2,5.800166E-2,3.3813305E-2,2.147567E-2,-3.855124E-2,7.3030186E-3,6.55556E-2,-1.2505333E-2,-9.4033696E-2,1.9410132E-1,5.9695255E-2,-3.1329E-2,2.192267E-1,1.8435892E-1,7.270105E-2,-1.3024504E-1,1.5515573E-1,4.5652222E-2,1.5086067E-1,1.8905725E-1,7.3164776E-2,-1.8111938E-1,-1.1317084E-2,1.16702564E-1,-3.9964944E-2,9.017874E-2,-1.1655152E-2,-1.1228349E-3,-6.778112E-2,-1.9618489E-2,-6.682619E-2,-6.431688E-2,-1.0297239E-1,3.281832E-2,-3.6505595E-2,5.6794204E-2,-7.06176E-2,-8.746222E-2,-1.474047E-1,-1.2382913E-1,-1.9013588E-1,-1.1407322E-2,1.0484675E-2,-1.4499006E-1,2.072254E-2,-1.5586473E-1,-3.720365E-2,1.0155795E-1,-1.0473058E-1,1.1981051E-1,-4.306726E-2,-7.513632E-3,-5.771581E-2,-6.47018E-2,-1.4284077E-1,-6.922523E-2,1.7862278E-1],"categories":[],"categories_nodes":[],"categories_segments":[],"categories_sizes":[],"default_left":[0,0,0,0,0,0,0,0,0,0,0,0,0,0,0,0,0,0,0,0,0,0,0,0,0,0,0,0,0,0,0,0,0,0,0,0,0,0,0,0,0,0,0,0,0,0,0,0,0,0,0,0,0,0,0,0,0,0,0,0,0,0,0,0,0,0,0,0,0,0,0,0,0,0,0,0,0,0,0,0,0,0,0,0,0,0,0,0,0,0,0,0,0,0,0,0,0,0,0,0,0,0,0,0,0,0,0,0,0,0,0,0,0,0,0,0,0,0,0,0,0,0,0,0,0,0,0],"id":5,"left_children":[1,3,5,7,9,11,13,15,17,19,21,23,25,27,29,31,33,35,37,39,41,43,45,47,49,51,53,55,57,59,61,63,65,67,69,71,73,75,77,79,81,83,85,87,89,91,93,95,97,99,101,103,105,107,109,111,113,115,117,119,121,123,125,-1,-1,-1,-1,-1,-1,-1,-1,-1,-1,-1,-1,-1,-1,-1,-1,-1,-1,-1,-1,-1,-1,-1,-1,-1,-1,-1,-1,-1,-1,-1,-1,-1,-1,-1,-1,-1,-1,-1,-1,-1,-1,-1,-1,-1,-1,-1,-1,-1,-1,-1,-1,-1,-1,-1,-1,-1,-1,-1,-1,-1,-1,-1,-1],"loss_changes":[6.0827466E3,1.5356189E3,8.213406E2,3.0742603E2,3.101101E2,4.793186E2,1.3492972E2,3.259624E2,2.40966E2,1.19244385E2,6.907294E1,3.2884863E2,4.3282117E2,7.850652E1,1.0082608E2,1.4283582E2,6.3096786E1,1.1178729E2,7.965878E1,3.7815918E1,5.1535767E1,6.6411194E1,1.4857923E1,8.8224686E1,1.7254541E2,4.500142E1,7.395044E1,7.361766E1,2.7197289E1,5.134166E1,3.5211456E1,5.218994E1,1.0441699E2,5.5446167E1,6.9876816E1,5.767401E1,8.667473E1,5.847495E1,6.0607277E1,2.3981781E1,2.5537231E1,6.2853333E1,4.62677E1,4.0672783E1,7.63533E1,1.4802564E1,1.31781645E1,5.45608E1,2.9214996E1,6.4559586E1,9.489624E1,2.6394682E1,1.799733E1,4.020294E1,9.252075E0,4.804284E1,6.825976E1,2.4228058E1,2.6481464E1,3.350464E1,5.2674545E1,3.4029663E1,2.736661E1,0E0,0E0,0E0,0E0,0E0,0E0,0E0,0E0,0E0,0E0,0E0,0E0,0E0,0E0,0E0,0E0,0E0,0E0,0E0,0E0,0E0,0E0,0E0,0E0,0E0,0E0,0E0,0E0,0E0,0E0,0E0,0E0,0E0,0E0,0E0,0E0,0E0,0E0,0E0,0E0,0E0,0E0,0E0,0E0,0E0,0E0,0E0,0E0,0E0,0E0,0E0,0E0,0E0,0E0,0E0,0E0,0E0,0E0,0E0,0E0,0E0,0E0,0E0,0E0],"parents":[2147483647,0,0,1,1,2,2,3,3,4,4,5,5,6,6,7,7,8,8,9,9,10,10,11,11,12,12,13,13,14,14,15,15,16,16,17,17,18,18,19,19,20,20,21,21,22,22,23,23,24,24,25,25,26,26,27,27,28,28,29,29,30,30,31,31,32,32,33,33,34,34,35,35,36,36,37,37,38,38,39,39,40,40,41,41,42,42,43,43,44,44,45,45,46,46,47,47,48,48,49,49,50,50,51,51,52,52,53,53,54,54,55,55,56,56,57,57,58,58,59,59,60,60,61,61,62,62],"right_children":[2,4,6,8,10,12,14,16,18,20,22,24,26,28,30,32,34,36,38,40,42,44,46,48,50,52,54,56,58,60,62,64,66,68,70,72,74,76,78,80,82,84,86,88,90,92,94,96,98,100,102,104,106,108,110,112,114,116,118,120,122,124,126,-1,-1,-1,-1,-1,-1,-1,-1,-1,-1,-1,-1,-1,-1,-1,-1,-1,-1,-1,-1,-1,-1,-1,-1,-1,-1,-1,-1,-1,-1,-1,-1,-1,-1,-1,-1,-1,-1,-1,-1,-1,-1,-1,-1,-1,-1,-1,-1,-1,-1,-1,-1,-1,-1,-1,-1,-1,-1,-1,-1,-1,-1,-1,-1],"split_conditions":[-1.2936157E0,1.275E3,-3.9259817E-2,-4.617486E-1,-3.9359832E0,9.238795E-1,-8.125946E0,-7.876017E0,-1.6005531E1,7.3E1,2.7198729E1,2.8051639E0,9.382189E-1,8.875992E0,2.034979E1,-6.3226966E-5,2.132529E-2,-3.8388493E0,6.592092E-1,1.7524841E-4,1.303E3,-2.2069743E-1,3.2796388E0,8.183815E-1,3.4267706E-4,-1.7593859E-1,4.7973633E0,1.2178049E5,1.1008689E5,0E0,2.350501E0,2.096328E0,-4.3388373E-1,4.6792915E1,5E-1,1.89E2,9.41176E-1,7.3564636E2,1.2711395E-1,-8.830838E0,-2.0842733E0,-2.542324E1,5.4321E4,1.1048028E5,-3.398459E0,1.6569148E0,3.5307837E2,2.2536164E-4,2.9504312E2,6.3270533E-1,6.122173E-1,8.218317E0,-1.015672E-1,-2.5460196E-1,2.3E1,6.0352095E-4,1.6194229E0,4.803927E1,4.5E-1,-3.273316E1,2.8443851E1,2.6199026E1,1.73E2,1.0269914E-1,5.116621E-2,2.5848512E-2,7.005723E-2,2.6478456E-2,7.865971E-2,-1.0006305E-2,6.063131E-2,5.800166E-2,3.3813305E-2,2.147567E-2,-3.855124E-2,7.3030186E-3,6.55556E-2,-1.2505333E-2,-9.4033696E-2,1.9410132E-1,5.9695255E-2,-3.1329E-2,2.192267E-1,1.8435892E-1,7.270105E-2,-1.3024504E-1,1.5515573E-1,4.5652222E-2,1.5086067E-1,1.8905725E-1,7.3164776E-2,-1.8111938E-1,-1.1317084E-2,1.16702564E-1,-3.9964944E-2,9.017874E-2,-1.1655152E-2,-1.1228349E-3,-6.778112E-2,-1.9618489E-2,-6.682619E-2,-6.431688E-2,-1.0297239E-1,3.281832E-2,-3.6505595E-2,5.6794204E-2,-7.06176E-2,-8.746222E-2,-1.474047E-1,-1.2382913E-1,-1.9013588E-1,-1.1407322E-2,1.0484675E-2,-1.4499006E-1,2.072254E-2,-1.5586473E-1,-3.720365E-2,1.0155795E-1,-1.0473058E-1,1.1981051E-1,-4.306726E-2,-7.513632E-3,-5.771581E-2,-6.47018E-2,-1.4284077E-1,-6.922523E-2,1.7862278E-1],"split_indices":[122,137,131,131,122,132,117,122,122,142,118,122,122,147,65,76,157,111,116,54,137,131,150,116,45,122,122,1,28,133,149,148,133,65,132,142,132,16,157,122,149,121,0,123,121,148,15,46,16,132,132,115,150,131,142,46,150,49,23,120,121,121,137,0,0,0,0,0,0,0,0,0,0,0,0,0,0,0,0,0,0,0,0,0,0,0,0,0,0,0,0,0,0,0,0,0,0,0,0,0,0,0,0,0,0,0,0,0,0,0,0,0,0,0,0,0,0,0,0,0,0,0,0,0,0,0,0],"split_type":[0,0,0,0,0,0,0,0,0,0,0,0,0,0,0,0,0,0,0,0,0,0,0,0,0,0,0,0,0,0,0,0,0,0,0,0,0,0,0,0,0,0,0,0,0,0,0,0,0,0,0,0,0,0,0,0,0,0,0,0,0,0,0,0,0,0,0,0,0,0,0,0,0,0,0,0,0,0,0,0,0,0,0,0,0,0,0,0,0,0,0,0,0,0,0,0,0,0,0,0,0,0,0,0,0,0,0,0,0,0,0,0,0,0,0,0,0,0,0,0,0,0,0,0,0,0,0],"sum_hessian":[3.6906747E5,1.796958E5,1.8937169E5,1.6262923E5,1.7066559E4,9.288881E4,9.6482875E4,5.654267E4,1.0608657E5,1.0853836E4,6.2127227E3,8.0762195E4,1.2126617E4,6.3699086E4,3.2783785E4,3.2319777E4,2.4222895E4,6.888432E4,3.7202254E4,3.3394158E3,7.5144204E3,5.252488E3,9.602349E2,2.2107752E4,5.865444E4,3.9993035E3,8.127314E3,6.2722074E4,9.7701184E2,2.6545855E4,6.2379287E3,1.2226997E4,2.009278E4,1.5294879E4,8.928016E3,4.2811906E4,2.6072412E4,2.509268E4,1.2109574E4,4.8007327E2,2.8593425E3,2.498621E3,5.0157993E3,3.193165E3,2.0593228E3,7.4114166E2,2.1909323E2,1.7814781E4,4.292969E3,1.3720702E4,4.493374E4,1.9788468E3,2.0204568E3,4.64821E3,3.479104E3,6.1719715E4,1.0023617E3,7.549808E2,2.220311E2,1.1055198E4,1.5490658E4,6.0768877E3,1.610409E2,1.0077962E4,2.1490354E3,7.9731157E3,1.2119664E4,1.3166322E4,2.1285564E3,7.410365E3,1.5176508E3,1.2557237E4,3.0254668E4,2.3690676E4,2.3817368E3,2.3432828E4,1.6598512E3,1.122516E4,8.8441425E2,2.3061615E2,2.494571E2,3.685453E1,2.822488E3,5.960858E2,1.9025353E3,5.0944572E1,4.964855E3,2.8191335E3,3.7403162E2,9.579767E2,1.1013461E3,4.852341E1,6.926183E2,1.4824864E2,7.08446E1,4.8583017E2,1.7328951E4,7.087722E2,3.5841968E3,1.0220986E4,3.4997158E3,3.8209137E4,6.7246006E3,1.0318615E3,9.469854E2,1.045365E2,1.9159203E3,1.486221E3,3.161989E3,2.0893922E2,3.2701648E3,5.0747918E4,1.0971796E4,6.6611096E2,3.3625076E2,5.363415E2,2.1863925E2,1.10401695E2,1.116294E2,1.13923225E2,1.0941275E4,1.3300686E4,2.1899727E3,5.5251816E3,5.517059E2,7.0747925E1,9.029297E1],"tree_param":{"num_deleted":"0","num_feature":"162","num_nodes":"127","size_leaf_vector":"1"}},{"base_weights":[-6.4663537E-4,-9.412325E-2,1.0019957E-1,-7.446931E-2,-2.6971024E-1,7.937811E-2,3.0530325E-1,-4.554903E-2,-1.4151871E-1,-3.9067414E-1,-1.5343593E-1,5.157447E-2,1.1585132E-1,1.4349705E-1,4.1740298E-1,-6.618146E-2,1.5705587E-2,-1.7432824E-1,-8.98884E-2,-3.367314E-1,-5.0311637E-1,-2.0726798E-1,-6.757078E-4,2.8736342E-4,7.1772724E-2,3.2383956E-2,1.5531543E-1,6.389993E-2,2.0178443E-1,2.9728684E-1,5.382568E-1,-1.2137264E-1,-4.377929E-2,2.311622E-2,-3.1012285E-1,-2.2541969E-1,-8.3503865E-2,4.196149E-2,-1.14910655E-1,-3.94685E-1,-2.2860049E-1,-2.800868E-1,-5.3726804E-1,-1.19831085E-1,-3.739941E-1,-8.7963775E-2,2.0622295E-1,5.6672757E-3,-4.2225808E-1,8.9059606E-2,-5.6999577E-3,4.758981E-2,-1.21091485E-1,1.2679474E-1,2.0855321E-1,-1.6998067E-1,9.210701E-2,1.7043404E-1,4.7836214E-1,4.035574E-1,1.6684625E-1,4.6859533E-1,6.697417E-1,-6.117605E-2,-2.5180357E-2,-4.2029507E-2,-1.01006795E-2,3.233129E-2,-9.0247115E-5,-1.5142731E-1,3.1289138E-2,-5.4349504E-2,-7.888538E-2,-1.1381684E-1,-2.0265384E-2,-7.825201E-2,2.3161756E-2,1.4427206E-1,-3.6103748E-2,-1.0342475E-1,-1.506033E-1,-3.9256696E-2,-1.1403763E-1,-1.4368677E-1,-8.685893E-3,-1.7095332E-1,-1.0680196E-1,-9.021804E-3,-7.288378E-2,-1.2994644E-1,-6.205533E-2,-3.8373243E-2,8.2210325E-2,9.711284E-2,-6.2023126E-2,-5.4275743E-3,2.1841774E-2,-1.6661216E-1,3.839829E-2,2.3162985E-2,5.603492E-2,-1.8294219E-2,2.409204E-2,-2.7559572E-3,2.7910516E-2,9.0633165E-3,-7.44393E-2,3.1516343E-2,6.635238E-2,3.4301873E-2,7.358077E-2,8.642672E-2,-7.713786E-2,9.637331E-3,6.603438E-2,2.0270849E-2,8.553314E-2,6.922016E-2,1.7654769E-1,3.882961E-2,1.3495336E-1,-1.200178E-1,6.0929045E-2,9.6276395E-2,1.6207561E-1,2.5266092E-2,2.0546614E-1],"categories":[],"categories_nodes":[],"categories_segments":[],"categories_sizes":[],"default_left":[0,0,0,0,0,0,0,0,0,0,0,0,0,0,0,0,0,0,0,0,0,0,0,0,0,0,0,0,0,0,0,0,0,0,0,0,0,0,0,0,0,0,0,0,0,0,0,0,0,0,0,0,0,0,0,0,0,0,0,0,0,0,0,0,0,0,0,0,0,0,0,0,0,0,0,0,0,0,0,0,0,0,0,0,0,0,0,0,0,0,0,0,0,0,0,0,0,0,0,0,0,0,0,0,0,0,0,0,0,0,0,0,0,0,0,0,0,0,0,0,0,0,0,0,0,0,0],"id":6,"left_children":[1,3,5,7,9,11,13,15,17,19,21,23,25,27,29,31,33,35,37,39,41,43,45,47,49,51,53,55,57,59,61,63,65,67,69,71,73,75,77,79,81,83,85,87,89,91,93,95,97,99,101,103,105,107,109,111,113,115,117,119,121,123,125,-1,-1,-1,-1,-1,-1,-1,-1,-1,-1,-1,-1,-1,-1,-1,-1,-1,-1,-1,-1,-1,-1,-1,-1,-1,-1,-1,-1,-1,-1,-1,-1,-1,-1,-1,-1,-1,-1,-1,-1,-1,-1,-1,-1,-1,-1,-1,-1,-1,-1,-1,-1,-1,-1,-1,-1,-1,-1,-1,-1,-1,-1,-1,-1],"loss_changes":[3.437854E3,6.5311426E2,7.491599E2,3.3004608E2,2.679004E2,1.615014E2,2.9319226E2,1.5029483E2,8.6871216E1,5.6462524E1,7.989613E1,9.36196E1,2.2691742E2,3.0692627E1,1.3847498E2,1.0998035E2,7.235792E1,1.4550812E2,6.576361E1,3.9469482E1,2.2890503E1,1.0468494E2,4.5757164E1,5.8053055E1,8.683673E1,5.162034E1,7.099524E1,1.8482092E1,3.3041794E1,6.635843E1,4.3277954E1,7.935184E1,6.1613785E1,5.808036E1,5.3805885E1,3.3287903E1,5.3274277E1,3.3957336E1,5.4309692E1,2.1846863E1,3.2610573E1,2.0152414E1,1.5281067E1,5.2086235E1,2.4344238E1,2.5802464E1,3.6540802E1,4.0225296E1,2.3587704E1,6.1371124E1,5.6248154E1,5.192458E1,3.8335217E1,6.247638E1,5.6409058E1,1.2114042E1,1.9177486E1,4.047355E1,1.0455658E1,3.3438263E1,4.432734E1,3.2782043E1,1.4538025E1,0E0,0E0,0E0,0E0,0E0,0E0,0E0,0E0,0E0,0E0,0E0,0E0,0E0,0E0,0E0,0E0,0E0,0E0,0E0,0E0,0E0,0E0,0E0,0E0,0E0,0E0,0E0,0E0,0E0,0E0,0E0,0E0,0E0,0E0,0E0,0E0,0E0,0E0,0E0,0E0,0E0,0E0,0E0,0E0,0E0,0E0,0E0,0E0,0E0,0E0,0E0,0E0,0E0,0E0,0E0,0E0,0E0,0E0,0E0,0E0,0E0,0E0,0E0,0E0],"parents":[2147483647,0,0,1,1,2,2,3,3,4,4,5,5,6,6,7,7,8,8,9,9,10,10,11,11,12,12,13,13,14,14,15,15,16,16,17,17,18,18,19,19,20,20,21,21,22,22,23,23,24,24,25,25,26,26,27,27,28,28,29,29,30,30,31,31,32,32,33,33,34,34,35,35,36,36,37,37,38,38,39,39,40,40,41,41,42,42,43,43,44,44,45,45,46,46,47,47,48,48,49,49,50,50,51,51,52,52,53,53,54,54,55,55,56,56,57,57,58,58,59,59,60,60,61,61,62,62],"right_children":[2,4,6,8,10,12,14,16,18,20,22,24,26,28,30,32,34,36,38,40,42,44,46,48,50,52,54,56,58,60,62,64,66,68,70,72,74,76,78,80,82,84,86,88,90,92,94,96,98,100,102,104,106,108,110,112,114,116,118,120,122,124,126,-1,-1,-1,-1,-1,-1,-1,-1,-1,-1,-1,-1,-1,-1,-1,-1,-1,-1,-1,-1,-1,-1,-1,-1,-1,-1,-1,-1,-1,-1,-1,-1,-1,-1,-1,-1,-1,-1,-1,-1,-1,-1,-1,-1,-1,-1,-1,-1,-1,-1,-1,-1,-1,-1,-1,-1,-1,-1,-1,-1,-1,-1,-1,-1],"split_conditions":[5.092131E-1,1.286E3,1.303E3,6.271022E-4,-3.1023645E0,2E0,3.318458E0,3.2415953E-1,-2.5460196E-1,-2.923717E-1,-8.7155744E-2,-8.812901E-5,5.612082E0,1.5399587E0,-3.502074E-1,2.4518794E-1,2.350501E0,-3.9359832E0,2.125E-1,-6.180904E0,1.7106182E-4,-2.3344536E-1,2.6736961E1,8.042492E2,5.779176E-4,1.264E3,1.4569463E-3,-2.9857917E-4,3.486207E-4,8.832185E0,7.8962555E0,-2.3344536E-1,-9.6004987E-1,9.592458E-2,1.7785206E0,3.9375E-1,-1.428633E-2,-2.417346E-1,-2.7535728E-1,5.173169E-4,1.229632E1,-6.7922506E0,-8.7155744E-2,6.271022E-4,-3.112702E-1,1.1342029E5,3.2796388E0,1.05673695E5,-1.1105375E0,7.8352755E-1,2.24836E1,-6.549124E-2,3.783908E2,8.177029E-4,1.9375E-1,1.20739E-1,1.0320572E5,-2.2069743E-1,1E0,4.565916E-1,-5.821183E-3,9.692309E-1,5.7843918E4,-6.117605E-2,-2.5180357E-2,-4.2029507E-2,-1.01006795E-2,3.233129E-2,-9.0247115E-5,-1.5142731E-1,3.1289138E-2,-5.4349504E-2,-7.888538E-2,-1.1381684E-1,-2.0265384E-2,-7.825201E-2,2.3161756E-2,1.4427206E-1,-3.6103748E-2,-1.0342475E-1,-1.506033E-1,-3.9256696E-2,-1.1403763E-1,-1.4368677E-1,-8.685893E-3,-1.7095332E-1,-1.0680196E-1,-9.021804E-3,-7.288378E-2,-1.2994644E-1,-6.205533E-2,-3.8373243E-2,8.2210325E-2,9.711284E-2,-6.2023126E-2,-5.4275743E-3,2.1841774E-2,-1.6661216E-1,3.839829E-2,2.3162985E-2,5.603492E-2,-1.8294219E-2,2.409204E-2,-2.7559572E-3,2.7910516E-2,9.0633165E-3,-7.44393E-2,3.1516343E-2,6.635238E-2,3.4301873E-2,7.358077E-2,8.642672E-2,-7.713786E-2,9.637331E-3,6.603438E-2,2.0270849E-2,8.553314E-2,6.922016E-2,1.7654769E-1,3.882961E-2,1.3495336E-1,-1.200178E-1,6.0929045E-2,9.6276395E-2,1.6207561E-1,2.5266092E-2,2.0546614E-1],"split_indices":[122,137,137,46,122,135,122,149,131,131,131,76,122,122,131,113,149,122,48,122,54,131,121,15,46,137,11,76,73,121,122,131,131,99,148,136,11,150,156,45,63,122,131,46,122,28,150,123,121,146,65,149,16,45,136,99,1,131,130,150,12,132,29,0,0,0,0,0,0,0,0,0,0,0,0,0,0,0,0,0,0,0,0,0,0,0,0,0,0,0,0,0,0,0,0,0,0,0,0,0,0,0,0,0,0,0,0,0,0,0,0,0,0,0,0,0,0,0,0,0,0,0,0,0,0,0,0],"split_type":[0,0,0,0,0,0,0,0,0,0,0,0,0,0,0,0,0,0,0,0,0,0,0,0,0,0,0,0,0,0,0,0,0,0,0,0,0,0,0,0,0,0,0,0,0,0,0,0,0,0,0,0,0,0,0,0,0,0,0,0,0,0,0,0,0,0,0,0,0,0,0,0,0,0,0,0,0,0,0,0,0,0,0,0,0,0,0,0,0,0,0,0,0,0,0,0,0,0,0,0,0,0,0,0,0,0,0,0,0,0,0,0,0,0,0,0,0,0,0,0,0,0,0,0,0,0,0],"sum_hessian":[3.6468888E5,1.8925978E5,1.7542908E5,1.7020922E5,1.9050564E4,1.5926264E5,1.6166441E4,1.18918164E5,5.1291055E4,9.335834E3,9.7147295E3,9.037325E4,6.888939E4,6.6172705E3,9.54917E3,8.895524E4,2.996293E4,3.1360205E4,1.993085E4,6.311815E3,3.0240195E3,7.1830845E3,2.531645E3,2.5535332E4,6.4837914E4,2.211582E4,4.6773574E4,2.7981792E3,3.8190913E3,4.790937E3,4.758233E3,2.5681215E4,6.3274023E4,2.9297516E4,6.6541284E2,2.0069195E4,1.129101E4,3.1790083E3,1.6751842E4,4.107643E3,2.2041719E3,4.027879E2,2.6212317E3,4.7130947E3,2.4699897E3,1.7808856E3,7.5075946E2,2.5215275E4,3.2005807E2,5.3009484E4,1.1828432E4,2.0122809E4,1.9930132E3,3.045924E4,1.6314333E4,3.0061203E2,2.4975674E3,3.4317185E3,3.873728E2,2.6389104E3,2.1520266E3,3.113333E3,1.6449001E3,8.0117095E3,1.7669506E4,6.0095513E3,5.7264473E4,6.347418E3,2.2950098E4,4.5261942E2,2.1279344E2,9.212393E3,1.0856803E4,5.764447E2,1.0714565E4,3.307732E2,2.848235E3,1.5064131E2,1.66012E4,2.8062043E3,1.3014386E3,1.3409945E3,8.6317737E2,2.242782E2,1.785097E2,2.2200923E3,4.0113928E2,2.726529E3,1.9865656E3,1.8231058E3,6.46884E2,1.604476E3,1.7640964E2,5.846471E2,1.6611243E2,1.8624959E4,6.590316E3,2.5770532E2,6.2352768E1,4.7278434E4,5.731051E3,7.200565E3,4.627866E3,8.946469E3,1.117634E4,9.0998914E2,1.083024E3,2.4758312E4,5.700927E3,4.576109E3,1.1738225E4,4.768033E1,2.5293169E2,1.7015128E3,7.960545E2,1.8098634E3,1.6218552E3,1.20199196E2,2.6717358E2,3.8176837E2,2.257142E3,1.2873677E2,2.0232899E3,1.01893494E3,2.094398E3,4.1640366E1,1.6032598E3],"tree_param":{"num_deleted":"0","num_feature":"162","num_nodes":"127","size_leaf_vector":"1"}},{"base_weights":[2.090575E-3,-7.402746E-2,5.558068E-2,-1.6866647E-1,-5.3309184E-2,2.1456892E-2,9.0415895E-2,-2.8386882E-1,-1.504829E-1,-8.673E-2,-3.707449E-2,6.000344E-3,4.6949826E-2,7.071185E-2,1.2389546E-1,-2.8624615E-1,9.3070155E-1,-9.4767824E-2,-1.6740151E-1,-2.9701818E-2,-1.0023651E-1,-4.9126152E-2,-1.49941165E-2,1.6949488E-2,-3.4931134E-2,9.686913E-2,3.25284E-2,1.6186713E-1,6.411278E-2,8.327181E-2,1.5491371E-1,-2.4878663E-1,-3.6116213E-1,5.640126E-1,-1.09253205E-1,-1.1218709E-1,8.712608E-2,-1.3480075E-1,-1.9579726E-1,9.018501E-1,-3.217877E-2,-5.947041E-2,-1.16807975E-1,-5.847467E-2,7.848533E-3,8.778407E-2,-2.0789765E-2,2.1755112E-2,-9.486757E-2,-3.824433E-2,9.919278E-1,8.381366E-1,9.2040196E-2,5.9494656E-3,5.744922E-2,3.268731E-2,2.2208095E-1,5.322121E-2,1.1117083E-1,1.0712645E-1,1.3412311E-2,-1.22838795E-1,1.6152833E-1,-7.754134E-2,6.0986586E-2,-1.0328803E-2,-1.1313481E-1,4.3609682E-1,-3.425948E-2,1.1353979E-2,3.1862673E-1,-5.2737724E-2,-2.5281565E-2,-6.502288E-2,-3.301013E-2,6.356504E-1,7.922439E-2,-4.798354E-2,-4.267872E-3,8.5534915E-2,-1.9404937E-2,-3.9412413E-2,-1.6915387E-2,-1.3281069E-2,-2.830288E-2,-8.4513676E-4,8.832892E-2,4.8590753E-2,-2.0187778E-2,3.0487953E-3,-1.2654732E-2,-3.7825701E-3,1.1881563E-2,-3.2590993E-2,2.4402298E-1,-1.4892446E-4,-2.7738469E-2,5.0770104E-1,7.297293E-2,4.172105E-1,1.0718149E-1,4.0101588E-2,6.806765E-3,5.3086523E-3,-3.4215365E-2,1.41114015E-2,5.437058E-2,9.43374E-2,-1.5955238E-2,4.83975E-2,1.4373513E-1,4.4442877E-2,1.4203749E-2,1.5841914E-2,4.9713325E-2,7.392594E-2,2.5212813E-2,4.1534718E-2,-3.1082468E-2,2.2828515E-1,-5.5169407E-2,3.4442846E-2,5.8166366E-2],"categories":[],"categories_nodes":[],"categories_segments":[],"categories_sizes":[],"default_left":[0,0,0,0,0,0,0,0,0,0,0,0,0,0,0,0,0,0,0,0,0,0,0,0,0,0,0,0,0,0,0,0,0,0,0,0,0,0,0,0,0,0,0,0,0,0,0,0,0,0,0,0,0,0,0,0,0,0,0,0,0,0,0,0,0,0,0,0,0,0,0,0,0,0,0,0,0,0,0,0,0,0,0,0,0,0,0,0,0,0,0,0,0,0,0,0,0,0,0,0,0,0,0,0,0,0,0,0,0,0,0,0,0,0,0,0,0,0,0,0,0,0,0],"id":7,"left_children":[1,3,5,7,9,11,13,15,17,19,21,23,25,27,29,31,33,35,37,39,41,43,45,47,49,51,53,55,57,59,61,63,65,-1,-1,67,69,71,73,75,77,79,81,83,85,87,89,91,93,95,97,99,101,103,105,107,109,111,113,115,117,119,121,-1,-1,-1,-1,-1,-1,-1,-1,-1,-1,-1,-1,-1,-1,-1,-1,-1,-1,-1,-1,-1,-1,-1,-1,-1,-1,-1,-1,-1,-1,-1,-1,-1,-1,-1,-1,-1,-1,-1,-1,-1,-1,-1,-1,-1,-1,-1,-1,-1,-1,-1,-1,-1,-1,-1,-1,-1,-1,-1,-1],"loss_changes":[8.4997955E2,1.6892319E2,1.4573795E2,3.2370667E1,3.8348434E1,2.4404318E1,4.001352E1,6.3538666E0,1.2583282E1,1.7796936E1,1.26594925E1,1.7281292E1,1.6826591E1,2.2964859E1,2.8308502E1,5.8171387E0,6.0366254E0,9.881674E0,9.463623E0,1.0242888E1,1.2614899E1,1.6393196E1,1.0009045E1,1.6349266E1,2.7724808E1,1.8677467E1,1.2014536E1,2.0043114E1,1.8249237E1,1.621904E1,2.3432648E1,6.2101593E0,3.6329346E0,0E0,0E0,9.121712E0,1.3069653E1,9.876625E0,9.814636E0,8.578301E0,1.0126321E1,9.721527E0,1.1683716E1,1.3466179E1,1.3263391E1,1.033003E1,1.05313835E1,1.7892672E1,1.5768149E1,1.660343E1,1.333255E1,8.480772E0,1.5029499E1,1.237593E1,1.2056257E1,1.9874374E1,2.7376434E1,1.6124496E1,2.12975E1,2.3309235E1,3.6283146E1,1.6166765E1,1.879596E1,0E0,0E0,0E0,0E0,0E0,0E0,0E0,0E0,0E0,0E0,0E0,0E0,0E0,0E0,0E0,0E0,0E0,0E0,0E0,0E0,0E0,0E0,0E0,0E0,0E0,0E0,0E0,0E0,0E0,0E0,0E0,0E0,0E0,0E0,0E0,0E0,0E0,0E0,0E0,0E0,0E0,0E0,0E0,0E0,0E0,0E0,0E0,0E0,0E0,0E0,0E0,0E0,0E0,0E0,0E0,0E0,0E0,0E0,0E0,0E0],"parents":[2147483647,0,0,1,1,2,2,3,3,4,4,5,5,6,6,7,7,8,8,9,9,10,10,11,11,12,12,13,13,14,14,15,15,16,16,17,17,18,18,19,19,20,20,21,21,22,22,23,23,24,24,25,25,26,26,27,27,28,28,29,29,30,30,31,31,32,32,35,35,36,36,37,37,38,38,39,39,40,40,41,41,42,42,43,43,44,44,45,45,46,46,47,47,48,48,49,49,50,50,51,51,52,52,53,53,54,54,55,55,56,56,57,57,58,58,59,59,60,60,61,61,62,62],"right_children":[2,4,6,8,10,12,14,16,18,20,22,24,26,28,30,32,34,36,38,40,42,44,46,48,50,52,54,56,58,60,62,64,66,-1,-1,68,70,72,74,76,78,80,82,84,86,88,90,92,94,96,98,100,102,104,106,108,110,112,114,116,118,120,122,-1,-1,-1,-1,-1,-1,-1,-1,-1,-1,-1,-1,-1,-1,-1,-1,-1,-1,-1,-1,-1,-1,-1,-1,-1,-1,-1,-1,-1,-1,-1,-1,-1,-1,-1,-1,-1,-1,-1,-1,-1,-1,-1,-1,-1,-1,-1,-1,-1,-1,-1,-1,-1,-1,-1,-1,-1,-1,-1,-1],"split_conditions":[4.4074096E-4,1.6935136E-4,7.840529E-4,6.543663E0,2.5221426E-4,5.597069E-1,3.4464367E1,2.038855E0,1.9162516E-1,-2.4222685E-1,6.0833335E-1,1.7753983E1,-7.489557E-1,5.8009785E4,3.0555555E-1,2.388026E-2,1.7673013E-1,6.80059E0,2.0364176E-1,1.5E-1,3.792652E0,-4.289561E0,-3.5121728E-4,1.1802584E5,3.3350697E1,2.3844186E-4,6.3905245E-1,-9.56489E0,5.9698704E1,6.706283E0,1.8209074E2,1E0,7.684025E-2,5.640126E-1,-1.09253205E-1,-2.3544893E0,-2.6989399E-5,-4.5009845E-1,5.409745E-1,-6.86123E-3,-5.4681698E1,-9.986295E-1,2.9000716E-4,6.691306E-1,1E0,-9.622848E-4,4.385097E-1,-1.1179161E1,2.3600821E-1,1.3256761E0,-1.1082643E-1,-7.395691E-1,8.689708E0,1.1517462E5,8.969124E-1,7.189616E-2,4.461978E-1,-1.3730413E-3,2.38E2,-6.576254E-1,1.6194229E0,7.857454E-1,-2.3285048E0,-7.754134E-2,6.0986586E-2,-1.0328803E-2,-1.1313481E-1,4.3609682E-1,-3.425948E-2,1.1353979E-2,3.1862673E-1,-5.2737724E-2,-2.5281565E-2,-6.502288E-2,-3.301013E-2,6.356504E-1,7.922439E-2,-4.798354E-2,-4.267872E-3,8.5534915E-2,-1.9404937E-2,-3.9412413E-2,-1.6915387E-2,-1.3281069E-2,-2.830288E-2,-8.4513676E-4,8.832892E-2,4.8590753E-2,-2.0187778E-2,3.0487953E-3,-1.2654732E-2,-3.7825701E-3,1.1881563E-2,-3.2590993E-2,2.4402298E-1,-1.4892446E-4,-2.7738469E-2,5.0770104E-1,7.297293E-2,4.172105E-1,1.0718149E-1,4.0101588E-2,6.806765E-3,5.3086523E-3,-3.4215365E-2,1.41114015E-2,5.437058E-2,9.43374E-2,-1.5955238E-2,4.83975E-2,1.4373513E-1,4.4442877E-2,1.4203749E-2,1.5841914E-2,4.9713325E-2,7.392594E-2,2.5212813E-2,4.1534718E-2,-3.1082468E-2,2.2828515E-1,-5.5169407E-2,3.4442846E-2,5.8166366E-2],"split_indices":[50,52,50,53,50,25,63,145,113,106,61,122,132,29,136,153,72,65,131,23,64,117,73,28,124,45,158,122,38,122,15,128,119,0,0,68,10,131,132,152,122,131,52,132,139,36,147,122,157,120,147,41,122,28,25,75,131,6,142,149,150,55,122,0,0,0,0,0,0,0,0,0,0,0,0,0,0,0,0,0,0,0,0,0,0,0,0,0,0,0,0,0,0,0,0,0,0,0,0,0,0,0,0,0,0,0,0,0,0,0,0,0,0,0,0,0,0,0,0,0,0,0,0],"split_type":[0,0,0,0,0,0,0,0,0,0,0,0,0,0,0,0,0,0,0,0,0,0,0,0,0,0,0,0,0,0,0,0,0,0,0,0,0,0,0,0,0,0,0,0,0,0,0,0,0,0,0,0,0,0,0,0,0,0,0,0,0,0,0,0,0,0,0,0,0,0,0,0,0,0,0,0,0,0,0,0,0,0,0,0,0,0,0,0,0,0,0,0,0,0,0,0,0,0,0,0,0,0,0,0,0,0,0,0,0,0,0,0,0,0,0,0,0,0,0,0,0,0,0],"sum_hessian":[2.0875808E5,8.615563E4,1.22602445E5,1.5472345E4,7.068329E4,6.193447E4,6.066798E4,2.1072449E3,1.3365101E4,2.3108232E4,4.757506E4,3.855782E4,2.3376646E4,3.8193004E4,2.2474977E4,2.103891E3,3.353731E0,3.1146787E3,1.0250422E4,4.4255493E3,1.8682684E4,3.0776016E4,1.6799043E4,3.042085E4,8.1369717E3,5.238394E3,1.8138254E4,2.5766953E3,3.561631E4,9.732416E3,1.2742561E4,1.4054552E3,6.98436E2,1.6743072E0,1.6794236E0,2.8428164E3,2.7186218E2,4.7745625E3,5.475859E3,1.0773229E1,4.414776E3,5.400918E3,1.3281765E4,2.643799E4,4.338025E3,8.9597437E2,1.5903068E4,2.9168082E4,1.2527676E3,8.1117617E3,2.5210114E1,3.2787434E1,5.2056064E3,8.777731E3,9.360521E3,8.1969794E2,1.7569974E3,2.892399E4,6.692318E3,7.254662E3,2.4777542E3,2.9599396E2,1.2446566E4,1.376398E3,2.9057276E1,3.2663006E1,6.65773E2,2.720762E0,2.8400957E3,2.5977087E2,1.2091296E1,2.6346873E3,2.1398755E3,4.39979E3,1.0760688E3,2.905919E0,7.867309E0,5.429249E2,3.871851E3,7.968419E1,5.3212334E3,1.0700853E4,2.5809119E3,1.8939758E4,7.4982334E3,4.1833247E3,1.5470009E2,6.0602264E2,2.8995172E2,6.499566E3,9.403503E3,9.971666E3,1.9196416E4,1.234927E3,1.784053E1,4.7828115E3,3.32895E3,1.2373787E1,1.2836326E1,1.4375908E1,1.8411524E1,3.2523037E3,1.9533026E3,7.9959185E3,7.818129E2,8.635592E3,7.249298E2,1.9083792E2,6.2886005E2,1.4224086E3,3.3458884E2,1.684545E3,2.7239443E4,3.2337722E3,3.458546E3,1.0299572E3,6.224705E3,1.1977606E3,1.2799935E3,1.8387362E1,2.776066E2,5.095101E3,7.3514653E3],"tree_param":{"num_deleted":"0","num_feature":"162","num_nodes":"123","size_leaf_vector":"1"}},{"base_weights":[-5.4736086E-4,9.898344E-2,-9.547509E-2,7.750653E-2,3.4234998E-1,-1.485043E-1,-4.4059608E-2,1.2695652E-1,5.1630765E-2,4.5792428E-1,2.0892996E-1,-1.2610072E-1,-2.9679996E-1,-2.2231141E-2,-8.747036E-2,1.8366283E-1,6.4242765E-2,7.7753305E-2,1.16897645E-4,4.088327E-1,6.118677E-1,1.6101234E-1,3.9757666E-1,-5.4001346E-2,-1.591238E-1,-1.15086436E-1,-4.3635964E-1,-1.847975E-2,-2.675336E-1,-6.2365506E-2,-1.8083388E-1,1.0877337E-1,2.312522E-1,1.3029169E-1,3.4697518E-2,1.3245893E-1,5.6802414E-2,4.591928E-2,-4.2535543E-2,4.4980597E-1,2.7092147E-1,1.1118735E-1,6.3957673E-1,7.4317954E-2,2.726666E-1,4.2572403E-1,-1.08691394E-1,-2.9550517E-2,-1.7781936E-1,-4.6517685E-2,-1.8015389E-1,-2.8456356E-2,-2.0377104E-1,-4.7275773E-1,-2.1140456E-1,-1.4759025E-2,-2.5159368E-1,5.4035026E-1,-2.9910746E-1,-5.0236184E-2,-2.1288048E-1,-1.9142234E-1,2.2654636E-1,4.1019306E-2,-4.174846E-2,5.423689E-2,9.53858E-2,8.243411E-2,2.1734964E-2,2.4409022E-2,-7.7709006E-3,5.628169E-2,2.6738929E-2,-8.989738E-3,2.0772628E-2,1.09812375E-2,1.20407306E-1,-4.109671E-2,1.1675376E-3,1.652073E-1,1.1433918E-1,3.8817886E-2,1.11970596E-1,1.0217219E-1,-1.5185109E-1,-3.610824E-2,1.9483198E-1,-6.639127E-2,2.8342392E-2,1.3481253E-1,3.1967692E-2,1.3734369E-1,-1.3214365E-2,1.5010273E-1,-1.3987903E-1,-1.8005382E-2,1.6550658E-2,2.9919502E-1,-5.5270195E-2,-2.7274154E-3,-6.656361E-2,-4.9791303E-2,-9.398785E-2,1.572138E-2,-3.5071373E-2,-4.828492E-3,-7.756007E-2,-1.16110675E-1,-1.7016272E-1,1.0286776E-1,-7.981865E-2,1.5331252E-2,-7.5642914E-3,-1.0278175E-1,1.21237785E-1,3.1204852E-1,-1.6550791E-1,-9.5828876E-2,2.4161693E-1,-7.37317E-3,-3.708717E-2,-9.317073E-2,1.0411513E-2,-5.0290763E-2,-1.08164825E-1,-5.597858E-2,1.5834796E-1],"categories":[],"categories_nodes":[],"categories_segments":[],"categories_sizes":[],"default_left":[0,0,0,0,0,0,0,0,0,0,0,0,0,0,0,0,0,0,0,0,0,0,0,0,0,0,0,0,0,0,0,0,0,0,0,0,0,0,0,0,0,0,0,0,0,0,0,0,0,0,0,0,0,0,0,0,0,0,0,0,0,0,0,0,0,0,0,0,0,0,0,0,0,0,0,0,0,0,0,0,0,0,0,0,0,0,0,0,0,0,0,0,0,0,0,0,0,0,0,0,0,0,0,0,0,0,0,0,0,0,0,0,0,0,0,0,0,0,0,0,0,0,0,0,0,0,0],"id":8,"left_children":[1,3,5,7,9,11,13,15,17,19,21,23,25,27,29,31,33,35,37,39,41,43,45,47,49,51,53,55,57,59,61,63,65,67,69,71,73,75,77,79,81,83,85,87,89,91,93,95,97,99,101,103,105,107,109,111,113,115,117,119,121,123,125,-1,-1,-1,-1,-1,-1,-1,-1,-1,-1,-1,-1,-1,-1,-1,-1,-1,-1,-1,-1,-1,-1,-1,-1,-1,-1,-1,-1,-1,-1,-1,-1,-1,-1,-1,-1,-1,-1,-1,-1,-1,-1,-1,-1,-1,-1,-1,-1,-1,-1,-1,-1,-1,-1,-1,-1,-1,-1,-1,-1,-1,-1,-1,-1],"loss_changes":[3.4627393E3,9.3509436E2,5.1144995E2,2.1035663E2,2.2361743E2,3.0675952E2,9.024979E1,2.0082764E2,1.4523773E2,5.849353E1,6.0825714E1,1.9100317E2,3.0728467E2,5.8316315E1,7.468167E1,1.05671875E2,5.2329887E1,8.2071655E1,7.094892E1,3.3198303E1,2.5975159E1,5.19915E1,1.9479614E1,7.629693E1,1.3029236E2,4.0449837E1,5.6021362E1,5.4139587E1,2.4510262E1,4.5841713E1,2.9170609E1,7.990872E1,7.927704E1,6.9250305E1,5.2407494E1,4.736798E1,5.5896484E1,5.796696E1,8.2466E1,3.127594E1,1.9545563E1,1.4286146E1,1.3410767E1,1.8052534E1,6.8876785E1,1.9497604E1,1.6048792E1,5.4332924E1,3.1512405E1,5.6835945E1,8.749646E1,1.9065533E1,2.6736832E1,4.7540527E1,2.9066029E1,4.2312717E1,5.8660725E1,2.0364576E1,2.0891357E1,4.376667E1,4.5304855E1,2.6418549E1,2.1447918E1,0E0,0E0,0E0,0E0,0E0,0E0,0E0,0E0,0E0,0E0,0E0,0E0,0E0,0E0,0E0,0E0,0E0,0E0,0E0,0E0,0E0,0E0,0E0,0E0,0E0,0E0,0E0,0E0,0E0,0E0,0E0,0E0,0E0,0E0,0E0,0E0,0E0,0E0,0E0,0E0,0E0,0E0,0E0,0E0,0E0,0E0,0E0,0E0,0E0,0E0,0E0,0E0,0E0,0E0,0E0,0E0,0E0,0E0,0E0,0E0,0E0,0E0,0E0,0E0],"parents":[2147483647,0,0,1,1,2,2,3,3,4,4,5,5,6,6,7,7,8,8,9,9,10,10,11,11,12,12,13,13,14,14,15,15,16,16,17,17,18,18,19,19,20,20,21,21,22,22,23,23,24,24,25,25,26,26,27,27,28,28,29,29,30,30,31,31,32,32,33,33,34,34,35,35,36,36,37,37,38,38,39,39,40,40,41,41,42,42,43,43,44,44,45,45,46,46,47,47,48,48,49,49,50,50,51,51,52,52,53,53,54,54,55,55,56,56,57,57,58,58,59,59,60,60,61,61,62,62],"right_children":[2,4,6,8,10,12,14,16,18,20,22,24,26,28,30,32,34,36,38,40,42,44,46,48,50,52,54,56,58,60,62,64,66,68,70,72,74,76,78,80,82,84,86,88,90,92,94,96,98,100,102,104,106,108,110,112,114,116,118,120,122,124,126,-1,-1,-1,-1,-1,-1,-1,-1,-1,-1,-1,-1,-1,-1,-1,-1,-1,-1,-1,-1,-1,-1,-1,-1,-1,-1,-1,-1,-1,-1,-1,-1,-1,-1,-1,-1,-1,-1,-1,-1,-1,-1,-1,-1,-1,-1,-1,-1,-1,-1,-1,-1,-1,-1,-1,-1,-1,-1,-1,-1,-1,-1,-1,-1],"split_conditions":[-1.4186984E0,1.292E3,-2.6176948E-2,-5.150381E-1,-4.840173E0,9.238795E-1,-8.045705E0,-8.830838E0,-1.5202678E1,-2.5460196E-1,1.855251E1,3.318458E0,1.3660568E0,8.875992E0,1.9191896E1,-4.3388373E-1,-2.2252093E-1,-1.1302264E1,-1.1034425E1,1.8245375E0,1.3837725E-4,-2.2069743E-1,1.2021166E-2,-2.0928931E0,3.034424E-4,-2.753374E-2,-8.7155744E-2,1.2178049E5,9.840609E-5,3.9007387E0,2.350501E0,8.5715115E-1,6.791667E-1,-9.563047E-1,1.9712585E-3,2.51E2,-1.7649406E1,2.10689E0,8.373043E4,-1.0894897E1,3.7282033E-4,5.13172E-2,-2.681067E0,1.3318553E0,-1.1320321E-1,1.422E3,8.01515E4,2.3257413E0,-3.918142E1,8.504406E-1,1.275E3,8.218317E0,-2.3394096E1,-2.419219E-1,1.4542125E1,-1.1509804E1,1.4540167E1,5.25E-1,1.5347864E-2,-1.7753335E0,1.0910404E5,2.37469E1,1.73E2,4.1019306E-2,-4.174846E-2,5.423689E-2,9.53858E-2,8.243411E-2,2.1734964E-2,2.4409022E-2,-7.7709006E-3,5.628169E-2,2.6738929E-2,-8.989738E-3,2.0772628E-2,1.09812375E-2,1.20407306E-1,-4.109671E-2,1.1675376E-3,1.652073E-1,1.1433918E-1,3.8817886E-2,1.11970596E-1,1.0217219E-1,-1.5185109E-1,-3.610824E-2,1.9483198E-1,-6.639127E-2,2.8342392E-2,1.3481253E-1,3.1967692E-2,1.3734369E-1,-1.3214365E-2,1.5010273E-1,-1.3987903E-1,-1.8005382E-2,1.6550658E-2,2.9919502E-1,-5.5270195E-2,-2.7274154E-3,-6.656361E-2,-4.9791303E-2,-9.398785E-2,1.572138E-2,-3.5071373E-2,-4.828492E-3,-7.756007E-2,-1.16110675E-1,-1.7016272E-1,1.0286776E-1,-7.981865E-2,1.5331252E-2,-7.5642914E-3,-1.0278175E-1,1.21237785E-1,3.1204852E-1,-1.6550791E-1,-9.5828876E-2,2.4161693E-1,-7.37317E-3,-3.708717E-2,-9.317073E-2,1.0411513E-2,-5.0290763E-2,-1.08164825E-1,-5.597858E-2,1.5834796E-1],"split_indices":[122,137,131,131,122,132,117,122,122,131,65,122,122,147,65,133,134,114,117,74,45,131,11,114,46,122,131,1,46,147,149,119,136,131,157,142,121,151,123,122,45,154,149,151,131,137,0,150,117,119,137,115,121,131,53,120,115,136,59,114,123,121,137,0,0,0,0,0,0,0,0,0,0,0,0,0,0,0,0,0,0,0,0,0,0,0,0,0,0,0,0,0,0,0,0,0,0,0,0,0,0,0,0,0,0,0,0,0,0,0,0,0,0,0,0,0,0,0,0,0,0,0,0,0,0,0,0],"split_type":[0,0,0,0,0,0,0,0,0,0,0,0,0,0,0,0,0,0,0,0,0,0,0,0,0,0,0,0,0,0,0,0,0,0,0,0,0,0,0,0,0,0,0,0,0,0,0,0,0,0,0,0,0,0,0,0,0,0,0,0,0,0,0,0,0,0,0,0,0,0,0,0,0,0,0,0,0,0,0,0,0,0,0,0,0,0,0,0,0,0,0,0,0,0,0,0,0,0,0,0,0,0,0,0,0,0,0,0,0,0,0,0,0,0,0,0,0,0,0,0,0,0,0,0,0,0,0],"sum_hessian":[3.6649397E5,1.789093E5,1.8758469E5,1.6440225E5,1.450705E4,9.2342266E4,9.5242414E4,5.6473816E4,1.0792843E5,7.77209E3,6.73496E3,8.022433E4,1.21179375E4,6.337615E4,3.186627E4,2.9656357E4,2.6817459E4,7.161311E4,3.631532E4,5.895658E3,1.8764315E3,5.3722285E3,1.3627314E3,2.5202422E4,5.502191E4,5.264772E3,6.8531655E3,6.2422598E4,9.535484E2,2.5114744E4,6.751525E3,1.1524307E4,1.813205E4,8.287406E3,1.8530053E4,1.9829713E4,5.1783395E4,1.7511016E4,1.8804307E4,4.5435215E3,1.3521367E3,9.86639E1,1.7777676E3,3.0250684E3,2.3471602E3,1.2911078E3,7.1623634E1,2.1047355E4,4.1550654E3,8.659213E3,4.6362695E4,2.6639033E3,2.6008687E3,5.8977925E3,9.55373E2,6.1442973E4,9.796265E2,3.525899E1,9.182894E2,2.3243027E4,1.8717173E3,6.5810044E3,1.7052077E2,1.0356891E4,1.1674156E3,1.1463179E4,6.6688706E3,2.3681143E3,5.919292E3,1.0468422E4,8.0616304E3,8.723567E3,1.11061455E4,6.4929424E3,4.5290453E4,1.706489E4,4.4612534E2,6.1963247E3,1.2607981E4,1.8373761E3,2.7061455E3,5.682936E2,7.838432E2,7.2262314E1,2.6401588E1,2.2634361E1,1.7551332E3,1.9245811E2,2.83261E3,1.1364634E3,1.2106968E3,1.20858E3,8.252786E1,2.6347696E1,4.5275936E1,1.548045E4,5.5669053E3,2.1719158E1,4.133346E3,7.1370454E3,1.5221672E3,4.1901316E4,4.4613804E3,1.3918534E3,1.27205E3,5.877815E2,2.0130872E3,3.0944395E3,2.803353E3,8.527755E1,8.7009546E2,8.416871E3,5.30261E4,8.606483E2,1.18978195E2,2.4220945E1,1.1038047E1,9.0239667E2,1.5892777E1,1.7222695E4,6.020332E3,1.3419686E3,5.297486E2,5.7713037E3,8.0970044E2,7.207117E1,9.84496E1],"tree_param":{"num_deleted":"0","num_feature":"162","num_nodes":"127","size_leaf_vector":"1"}},{"base_weights":[-9.866634E-4,-7.037693E-2,7.74771E-2,-5.0236292E-2,-1.7041758E-1,6.159995E-2,2.7198818E-1,-1.7271884E-1,-3.992434E-2,-2.2458547E-1,-8.7635204E-2,9.604645E-2,4.078811E-2,1.6821665E-1,4.0748188E-1,-2.2140956E-1,-9.670959E-2,-2.1391261E-2,-8.937878E-2,-3.501523E-1,-1.53172E-1,-1.3076477E-1,4.4188974E-3,4.5935944E-2,1.4672273E-1,2.0994464E-2,9.149485E-2,7.331945E-2,2.3789687E-1,5.254825E-1,3.0769044E-1,-2.253159E-1,1.0481592E0,-2.3575383E-1,-2.851247E-2,-3.8908992E-2,3.088755E-2,-1.4861492E-2,-1.04875036E-1,-3.098143E-1,-4.689814E-1,-5.1846568E-2,-2.236694E-1,-9.334893E-2,-2.5137004E-1,-1.4785172E-1,3.993584E-2,-8.3899945E-2,5.7930656E-2,2.9656693E-2,1.7966227E-1,-1.3522612E-2,5.496572E-2,5.10658E-2,1.687824E-1,3.0725699E-2,3.3356446E-1,3.1941372E-1,1.0772074E-1,4.6579653E-1,6.429E-1,2.562526E-1,5.042556E-1,-1.05434746E-1,-5.642574E-2,-7.954711E-2,3.6218905E-1,1.1030037E-2,-8.978341E-2,-2.5223135E-3,-1.5308909E-1,-3.1190379E-2,-7.173813E-3,-8.1666955E-4,3.131154E-2,5.5225617E-3,-7.751724E-2,-3.7129384E-2,-6.3215434E-3,-1.1758276E-1,-7.2967276E-2,-1.5086198E-1,-7.8614585E-2,-6.459405E-2,9.726273E-3,-1.13879114E-1,-4.520024E-2,-4.556057E-2,-3.6408505E-4,1.4210382E-1,-8.000632E-2,-5.403771E-2,1.5594709E-1,-6.4781606E-2,1.7758574E-2,2.7394372E-1,-3.072574E-2,6.5183886E-3,2.912937E-2,-5.8030426E-3,5.6627464E-2,4.2566292E-2,7.765459E-2,1.4852937E-1,-4.6832967E-3,2.5934074E-2,8.0380525E-4,-1.07234664E-1,1.7933706E-2,4.3609478E-2,1.2765509E-1,4.7249988E-2,-1.29007E-2,1.1714458E-1,-1.11839436E-1,1.4105844E-1,6.5643676E-2,2.484616E-3,1.0903434E-1,8.939199E-2,1.6861893E-1,-2.201929E-1,1.9662456E-1,6.347217E-2,1.6108027E-1,4.2099938E-2,1.8303363E-1],"categories":[],"categories_nodes":[],"categories_segments":[],"categories_sizes":[],"default_left":[0,0,0,0,0,0,0,0,0,0,0,0,0,0,0,0,0,0,0,0,0,0,0,0,0,0,0,0,0,0,0,0,0,0,0,0,0,0,0,0,0,0,0,0,0,0,0,0,0,0,0,0,0,0,0,0,0,0,0,0,0,0,0,0,0,0,0,0,0,0,0,0,0,0,0,0,0,0,0,0,0,0,0,0,0,0,0,0,0,0,0,0,0,0,0,0,0,0,0,0,0,0,0,0,0,0,0,0,0,0,0,0,0,0,0,0,0,0,0,0,0,0,0,0,0,0,0],"id":9,"left_children":[1,3,5,7,9,11,13,15,17,19,21,23,25,27,29,31,33,35,37,39,41,43,45,47,49,51,53,55,57,59,61,63,65,67,69,71,73,75,77,79,81,83,85,87,89,91,93,95,97,99,101,103,105,107,109,111,113,115,117,119,121,123,125,-1,-1,-1,-1,-1,-1,-1,-1,-1,-1,-1,-1,-1,-1,-1,-1,-1,-1,-1,-1,-1,-1,-1,-1,-1,-1,-1,-1,-1,-1,-1,-1,-1,-1,-1,-1,-1,-1,-1,-1,-1,-1,-1,-1,-1,-1,-1,-1,-1,-1,-1,-1,-1,-1,-1,-1,-1,-1,-1,-1,-1,-1,-1,-1],"loss_changes":[1.9704822E3,3.869734E2,5.2453345E2,2.019224E2,1.4430865E2,1.1257373E2,1.8015381E2,4.592453E1,1.3515399E2,1.7440295E2,5.055101E1,1.5018213E2,9.825049E1,4.7990784E1,6.529175E1,3.7760864E1,4.5975754E1,9.823642E1,4.6415802E1,3.3659485E1,8.8589325E1,3.910106E1,2.1980078E1,4.6318737E1,1.13383606E2,8.256261E1,8.586989E1,3.4079544E1,4.4384537E1,1.753949E1,3.0345123E1,3.536029E1,5.2078896E0,2.763356E1,3.1520586E1,7.838531E1,6.649338E1,5.608288E1,5.267511E1,2.8715546E1,1.2389679E1,7.012665E1,8.320041E1,3.5686844E1,2.2919403E1,1.6657715E1,1.62527E1,4.654013E1,3.8601196E1,5.0351967E1,6.860571E1,3.7104954E1,5.8410583E1,6.425667E1,5.6684967E1,2.4718988E1,1.7531658E1,3.893445E1,4.1023888E1,2.7155762E1,1.5218109E1,2.9869675E1,2.3956833E1,0E0,0E0,0E0,0E0,0E0,0E0,0E0,0E0,0E0,0E0,0E0,0E0,0E0,0E0,0E0,0E0,0E0,0E0,0E0,0E0,0E0,0E0,0E0,0E0,0E0,0E0,0E0,0E0,0E0,0E0,0E0,0E0,0E0,0E0,0E0,0E0,0E0,0E0,0E0,0E0,0E0,0E0,0E0,0E0,0E0,0E0,0E0,0E0,0E0,0E0,0E0,0E0,0E0,0E0,0E0,0E0,0E0,0E0,0E0,0E0,0E0,0E0,0E0,0E0],"parents":[2147483647,0,0,1,1,2,2,3,3,4,4,5,5,6,6,7,7,8,8,9,9,10,10,11,11,12,12,13,13,14,14,15,15,16,16,17,17,18,18,19,19,20,20,21,21,22,22,23,23,24,24,25,25,26,26,27,27,28,28,29,29,30,30,31,31,32,32,33,33,34,34,35,35,36,36,37,37,38,38,39,39,40,40,41,41,42,42,43,43,44,44,45,45,46,46,47,47,48,48,49,49,50,50,51,51,52,52,53,53,54,54,55,55,56,56,57,57,58,58,59,59,60,60,61,61,62,62],"right_children":[2,4,6,8,10,12,14,16,18,20,22,24,26,28,30,32,34,36,38,40,42,44,46,48,50,52,54,56,58,60,62,64,66,68,70,72,74,76,78,80,82,84,86,88,90,92,94,96,98,100,102,104,106,108,110,112,114,116,118,120,122,124,126,-1,-1,-1,-1,-1,-1,-1,-1,-1,-1,-1,-1,-1,-1,-1,-1,-1,-1,-1,-1,-1,-1,-1,-1,-1,-1,-1,-1,-1,-1,-1,-1,-1,-1,-1,-1,-1,-1,-1,-1,-1,-1,-1,-1,-1,-1,-1,-1,-1,-1,-1,-1,-1,-1,-1,-1,-1,-1,-1,-1,-1,-1,-1,-1],"split_conditions":[1.0652553E0,8.666667E-1,1.315E3,-3.4639522E-4,-2.1752632E0,-3.007058E-1,5.1992607E0,-2.8497477E0,6.1894616E-4,1.18E2,9.656852E0,9.262962E0,4.6094963E1,-2.7982903E-1,7.9E1,2.9986132E1,-6.9151306E-1,-7.876017E0,-1.1017331E-1,6.1065376E1,4.0110698E-4,2.1528468E0,2.454885E0,-9.9496853E-1,-1.6603691E1,-7.046833E-6,3.3380687E-1,4.834959E-3,1.416E3,1.0162585E1,1.6778898E1,7.6E1,-1.2517592E1,-4.1037927E0,5.1634827E0,-3.7055743E-1,4.3388373E-1,1.1000552E5,-2.1752632E0,-6.180904E0,1.1612289E-3,-1.3758299E1,-9.56489E0,9.704397E4,5.6559E4,7.638176E2,-7.270449E-2,5.6054E4,1.7773024E1,3.525882E1,6.6875E-1,-2.9087418E-1,4.8648266E-4,-5.806306E1,3.59737E0,-7.244036E-2,8E0,4E1,3.2498444E1,9.692309E-1,-1.3731826E-2,6.107256E0,-7.238684E0,-1.05434746E-1,-5.642574E-2,-7.954711E-2,3.6218905E-1,1.1030037E-2,-8.978341E-2,-2.5223135E-3,-1.5308909E-1,-3.1190379E-2,-7.173813E-3,-8.1666955E-4,3.131154E-2,5.5225617E-3,-7.751724E-2,-3.7129384E-2,-6.3215434E-3,-1.1758276E-1,-7.2967276E-2,-1.5086198E-1,-7.8614585E-2,-6.459405E-2,9.726273E-3,-1.13879114E-1,-4.520024E-2,-4.556057E-2,-3.6408505E-4,1.4210382E-1,-8.000632E-2,-5.403771E-2,1.5594709E-1,-6.4781606E-2,1.7758574E-2,2.7394372E-1,-3.072574E-2,6.5183886E-3,2.912937E-2,-5.8030426E-3,5.6627464E-2,4.2566292E-2,7.765459E-2,1.4852937E-1,-4.6832967E-3,2.5934074E-2,8.0380525E-4,-1.07234664E-1,1.7933706E-2,4.3609478E-2,1.2765509E-1,4.7249988E-2,-1.29007E-2,1.1714458E-1,-1.11839436E-1,1.4105844E-1,6.5643676E-2,2.484616E-3,1.0903434E-1,8.939199E-2,1.6861893E-1,-2.201929E-1,1.9662456E-1,6.347217E-2,1.6108027E-1,4.2099938E-2,1.8303363E-1],"split_indices":[122,136,137,76,122,131,122,124,46,142,124,122,122,131,142,118,131,122,156,53,45,147,112,131,121,76,132,11,137,122,122,137,111,121,144,131,133,123,122,122,46,121,122,3,1,16,150,0,65,122,136,157,45,117,147,155,100,142,121,132,12,150,84,0,0,0,0,0,0,0,0,0,0,0,0,0,0,0,0,0,0,0,0,0,0,0,0,0,0,0,0,0,0,0,0,0,0,0,0,0,0,0,0,0,0,0,0,0,0,0,0,0,0,0,0,0,0,0,0,0,0,0,0,0,0,0,0],"split_type":[0,0,0,0,0,0,0,0,0,0,0,0,0,0,0,0,0,0,0,0,0,0,0,0,0,0,0,0,0,0,0,0,0,0,0,0,0,0,0,0,0,0,0,0,0,0,0,0,0,0,0,0,0,0,0,0,0,0,0,0,0,0,0,0,0,0,0,0,0,0,0,0,0,0,0,0,0,0,0,0,0,0,0,0,0,0,0,0,0,0,0,0,0,0,0,0,0,0,0,0,0,0,0,0,0,0,0,0,0,0,0,0,0,0,0,0,0,0,0,0,0,0,0,0,0,0,0],"sum_hessian":[3.6191153E5,1.920607E5,1.6985084E5,1.5987536E5,3.2185338E4,1.5703411E5,1.2816734E4,1.241365E4,1.474617E5,1.9454047E4,1.2731291E4,5.9142094E4,9.7892016E4,7.2592676E3,5.5574673E3,7.565414E3,4.848236E3,1.0726538E5,4.0196324E4,7.051478E3,1.2402569E4,8.669159E3,4.062131E3,2.973801E4,2.9404082E4,7.040893E4,2.748309E4,3.0743608E3,4.1849067E3,2.5444546E3,3.013013E3,7.5430273E3,2.2386665E1,1.5946052E3,3.2536309E3,8.034381E4,2.6921574E4,6.920322E3,3.3276004E4,5.267102E3,1.7843763E3,5.0893774E3,7.3131924E3,6.6178516E3,2.0513079E3,7.6768744E2,3.2944438E3,2.5144573E3,2.7223553E4,6.4572227E3,2.294686E4,3.49242E4,3.5484727E4,1.804528E4,9.437809E3,2.6429182E3,4.3144275E2,2.5725261E3,1.6123802E3,1.6902367E3,8.5421796E2,2.3899153E3,6.230976E2,1.7171143E3,5.825913E3,2.347469E0,2.0039196E1,3.0151556E2,1.2930897E3,3.124273E3,1.2935777E2,1.504923E4,6.529458E4,1.8473322E4,8.448253E3,6.0893438E3,8.309782E2,2.7154744E4,6.1212603E3,2.3562087E3,2.9108933E3,1.5320278E3,2.5234851E2,1.7306355E3,3.358742E3,2.330719E3,4.982473E3,4.046851E3,2.5710005E3,4.1821014E1,2.0094868E3,7.3298663E2,3.4700752E1,2.2989662E2,3.064547E3,4.4971123E1,2.469486E3,1.41479795E4,1.3075573E4,4.93746E3,1.519763E3,1.5537652E4,7.4092075E3,1.4184569E2,3.4782355E4,2.2148592E4,1.3336136E4,3.7601434E2,1.7669266E4,8.650353E3,7.874566E2,9.714272E2,1.6714908E3,3.9968408E2,3.1758656E1,1.0280359E3,1.5444902E3,1.1616921E3,4.506881E2,6.1762134E2,1.0726154E3,7.175278E0,8.4704266E2,2.0632432E3,3.2667203E2,1.4092818E2,4.8216943E2],"tree_param":{"num_deleted":"0","num_feature":"162","num_nodes":"127","size_leaf_vector":"1"}},{"base_weights":[3.2336074E-3,-6.0463615E-2,4.5873053E-2,-1.3724087E-1,-4.0853698E-2,1.9090611E-2,7.7733174E-2,-2.3685445E-1,-1.1891729E-1,-6.686185E-2,-2.8195774E-2,3.0717291E-2,-1.683426E-2,7.2801575E-2,1.7786455E-1,-2.4164297E-1,2.5493926E-1,-8.480949E-2,-1.456427E-1,5.6343608E-2,-7.221575E-2,3.431442E-2,-3.263247E-2,-1.1801616E-2,4.478876E-2,4.7500464E-1,-1.9561943E-2,1.3728642E-1,6.7239106E-2,3.2454792E-1,1.4875303E-1,-9.381021E-2,-2.5599864E-1,1.0411766E0,-2.4277791E-1,2.0852408E-1,-9.374123E-2,2.5217503E-2,-1.524531E-1,1.8594196E-1,-4.6298396E-2,-1.467046E-1,-6.2427554E-2,-8.2680965E-3,1.5155701E-1,-4.762202E-2,-9.224624E-3,1.0380865E-1,-2.8209275E-2,3.2319304E-2,9.67751E-2,-1.274425E-1,8.031342E-1,-6.727328E-4,-7.4384205E-2,3.0871105E-1,1.09706745E-1,4.9342E-2,9.28426E-2,3.6828125E-1,-1.020254E-1,9.179365E-2,2.4604772E-1,3.0990792E-2,-7.714184E-2,-6.1303467E-2,-9.10303E-2,5.0281775E-1,-1.2685257E-1,2.056626E-1,-1.2046831E-1,2.011902E-2,1.7573696E-1,-3.889356E-2,-1.7125208E-2,-5.709857E-2,8.293903E-2,-4.2215955E-2,-6.9349386E-2,4.922214E-2,4.3967006E-1,-2.4340821E-2,1.2747766E-1,-4.497624E-2,3.489727E-1,-1.2967847E-2,-2.9574357E-2,9.7481795E-2,-1.0146227E-2,2.0280957E-1,3.687505E-2,-3.4214559E-3,-2.0173708E-2,3.8607481E-3,-1.4038806E-2,3.334709E-1,2.9036943E-2,3.9467746E-3,-1.7499752E-2,1.7412134E-2,-2.0512184E-3,3.340165E-2,-4.0590294E-2,2.1031223E-1,-1.14835575E-1,4.6889696E-1,1.5019307E-1,-1.3553173E-2,1.0308352E-2,-3.4254838E-2,-2.258409E-3,7.383879E-2,2.5676018E-1,2.7794507E-1,3.1027624E-2,1.1131701E-2,2.7350996E-2,6.640161E-2,2.5940254E-2,2.0347096E-1,8.767691E-2,2.7163696E-1,-7.565732E-2,1.5148415E-1,2.2386726E-2,1.0967439E-1,3.3902485E-2],"categories":[],"categories_nodes":[],"categories_segments":[],"categories_sizes":[],"default_left":[0,0,0,0,0,0,0,0,0,0,0,0,0,0,0,0,0,0,0,0,0,0,0,0,0,0,0,0,0,0,0,0,0,0,0,0,0,0,0,0,0,0,0,0,0,0,0,0,0,0,0,0,0,0,0,0,0,0,0,0,0,0,0,0,0,0,0,0,0,0,0,0,0,0,0,0,0,0,0,0,0,0,0,0,0,0,0,0,0,0,0,0,0,0,0,0,0,0,0,0,0,0,0,0,0,0,0,0,0,0,0,0,0,0,0,0,0,0,0,0,0,0,0,0,0,0,0],"id":10,"left_children":[1,3,5,7,9,11,13,15,17,19,21,23,25,27,29,31,33,35,37,39,41,43,45,47,49,51,53,55,57,59,61,63,65,67,69,71,73,75,77,79,81,83,85,87,89,91,93,95,97,99,101,103,105,107,109,111,113,115,117,119,121,123,125,-1,-1,-1,-1,-1,-1,-1,-1,-1,-1,-1,-1,-1,-1,-1,-1,-1,-1,-1,-1,-1,-1,-1,-1,-1,-1,-1,-1,-1,-1,-1,-1,-1,-1,-1,-1,-1,-1,-1,-1,-1,-1,-1,-1,-1,-1,-1,-1,-1,-1,-1,-1,-1,-1,-1,-1,-1,-1,-1,-1,-1,-1,-1,-1],"loss_changes":[5.655551E2,1.25707306E2,1.06431854E2,3.0977875E1,2.189418E1,2.8306229E1,2.8117218E1,6.274536E0,1.30681305E1,1.4365982E1,1.2409096E1,3.0632725E1,2.223972E1,1.9465637E1,1.1366989E1,5.522003E0,1.0398573E1,1.6542667E1,9.364304E0,1.2077635E1,1.5204773E1,1.4806231E1,1.4657272E1,2.4153282E1,2.4933357E1,1.8176275E1,1.7065693E1,2.0345505E1,2.2899582E1,8.280357E0,1.2349083E1,7.5241985E0,5.772995E0,1.0226094E1,2.735033E0,9.922737E0,8.048584E0,1.6797684E1,7.1119843E0,1.0986076E1,8.359244E0,1.0381519E1,1.2800018E1,1.8540821E1,1.178569E1,1.8098728E1,1.35388775E1,1.1086168E1,1.3894252E1,3.12499E1,2.5166199E1,7.270989E0,1.2853958E1,1.9113491E1,1.1235914E1,2.0226181E1,1.8962124E1,1.505526E1,1.6825867E1,9.2504425E0,6.5627604E0,9.963038E0,1.3058327E1,0E0,0E0,0E0,0E0,0E0,0E0,0E0,0E0,0E0,0E0,0E0,0E0,0E0,0E0,0E0,0E0,0E0,0E0,0E0,0E0,0E0,0E0,0E0,0E0,0E0,0E0,0E0,0E0,0E0,0E0,0E0,0E0,0E0,0E0,0E0,0E0,0E0,0E0,0E0,0E0,0E0,0E0,0E0,0E0,0E0,0E0,0E0,0E0,0E0,0E0,0E0,0E0,0E0,0E0,0E0,0E0,0E0,0E0,0E0,0E0,0E0,0E0,0E0,0E0],"parents":[2147483647,0,0,1,1,2,2,3,3,4,4,5,5,6,6,7,7,8,8,9,9,10,10,11,11,12,12,13,13,14,14,15,15,16,16,17,17,18,18,19,19,20,20,21,21,22,22,23,23,24,24,25,25,26,26,27,27,28,28,29,29,30,30,31,31,32,32,33,33,34,34,35,35,36,36,37,37,38,38,39,39,40,40,41,41,42,42,43,43,44,44,45,45,46,46,47,47,48,48,49,49,50,50,51,51,52,52,53,53,54,54,55,55,56,56,57,57,58,58,59,59,60,60,61,61,62,62],"right_children":[2,4,6,8,10,12,14,16,18,20,22,24,26,28,30,32,34,36,38,40,42,44,46,48,50,52,54,56,58,60,62,64,66,68,70,72,74,76,78,80,82,84,86,88,90,92,94,96,98,100,102,104,106,108,110,112,114,116,118,120,122,124,126,-1,-1,-1,-1,-1,-1,-1,-1,-1,-1,-1,-1,-1,-1,-1,-1,-1,-1,-1,-1,-1,-1,-1,-1,-1,-1,-1,-1,-1,-1,-1,-1,-1,-1,-1,-1,-1,-1,-1,-1,-1,-1,-1,-1,-1,-1,-1,-1,-1,-1,-1,-1,-1,-1,-1,-1,-1,-1,-1,-1,-1,-1,-1,-1],"split_conditions":[4.3740642E-4,1.5896169E-4,1.660579E1,6.935138E0,2.583778E-4,1.1842744E1,1.0453485E-3,8.458669E0,1.4349262E-1,-1.5850076E1,3.2E1,2.5917536E-3,-3.8542297E-1,-1.571276E-2,1.6569465E0,9.689609E0,3.6406983E-2,-3.693785E1,-2.2422743E1,2.5038E-1,-5.4681698E1,2.3E1,1.0280176E1,-7.818315E-1,1.6395407E1,1.0811601E1,6.3270533E-1,-2.5902682E2,1.7964948E-3,8.835068E-1,9.592273E-2,3.0132535E0,-7.818315E-1,8.3611734E-2,-2.2832249E1,1.7355439E-1,2.2536164E-4,-3.425598E0,9.679013E-1,7.4714756E-1,9.415509E-1,9.4664687E-1,6.593458E-1,1.28299E0,5.948352E4,-2.2103014E1,1.0390332E5,3.7037036E-3,2.1E2,-1.6600021E0,1.5428136E-1,-1.066236E-1,-1.05017185E1,8.2808204E-2,3.97E2,3.5414192E-1,-6.180853E-1,7.414288E-1,-9.832549E-1,2.026982E0,5.6E1,-2.7499214E1,6.1938095E-1,3.0990792E-2,-7.714184E-2,-6.1303467E-2,-9.10303E-2,5.0281775E-1,-1.2685257E-1,2.056626E-1,-1.2046831E-1,2.011902E-2,1.7573696E-1,-3.889356E-2,-1.7125208E-2,-5.709857E-2,8.293903E-2,-4.2215955E-2,-6.9349386E-2,4.922214E-2,4.3967006E-1,-2.4340821E-2,1.2747766E-1,-4.497624E-2,3.489727E-1,-1.2967847E-2,-2.9574357E-2,9.7481795E-2,-1.0146227E-2,2.0280957E-1,3.687505E-2,-3.4214559E-3,-2.0173708E-2,3.8607481E-3,-1.4038806E-2,3.334709E-1,2.9036943E-2,3.9467746E-3,-1.7499752E-2,1.7412134E-2,-2.0512184E-3,3.340165E-2,-4.0590294E-2,2.1031223E-1,-1.14835575E-1,4.6889696E-1,1.5019307E-1,-1.3553173E-2,1.0308352E-2,-3.4254838E-2,-2.258409E-3,7.383879E-2,2.5676018E-1,2.7794507E-1,3.1027624E-2,1.1131701E-2,2.7350996E-2,6.640161E-2,2.5940254E-2,2.0347096E-1,8.767691E-2,2.7163696E-1,-7.565732E-2,1.5148415E-1,2.2386726E-2,1.0967439E-1,3.3902485E-2],"split_indices":[50,50,4,51,50,122,60,64,131,111,142,59,154,12,145,118,154,38,111,132,122,142,115,133,121,65,132,39,11,22,154,150,133,153,39,146,46,122,143,119,69,25,131,115,0,38,123,136,142,121,156,69,40,131,142,95,150,69,132,66,142,122,75,0,0,0,0,0,0,0,0,0,0,0,0,0,0,0,0,0,0,0,0,0,0,0,0,0,0,0,0,0,0,0,0,0,0,0,0,0,0,0,0,0,0,0,0,0,0,0,0,0,0,0,0,0,0,0,0,0,0,0,0,0,0,0,0],"split_type":[0,0,0,0,0,0,0,0,0,0,0,0,0,0,0,0,0,0,0,0,0,0,0,0,0,0,0,0,0,0,0,0,0,0,0,0,0,0,0,0,0,0,0,0,0,0,0,0,0,0,0,0,0,0,0,0,0,0,0,0,0,0,0,0,0,0,0,0,0,0,0,0,0,0,0,0,0,0,0,0,0,0,0,0,0,0,0,0,0,0,0,0,0,0,0,0,0,0,0,0,0,0,0,0,0,0,0,0,0,0,0,0,0,0,0,0,0,0,0,0,0,0,0,0,0,0,0],"sum_hessian":[2.0822778E5,8.349612E4,1.2473166E5,1.698602E4,6.65101E4,6.7766766E4,5.6964895E4,2.6372207E3,1.4348799E4,2.177168E4,4.4738418E4,5.1197438E4,1.6569328E4,5.429264E4,2.6722537E3,2.6122937E3,2.4926865E1,6.3055864E3,8.043212E3,9.0629297E2,2.0865387E4,2.964453E3,4.1773965E4,1.2730527E4,3.846691E4,9.042988E1,1.6478898E4,4.3095093E3,4.998313E4,4.408429E2,2.2314106E3,2.318871E2,2.3804067E3,9.239478E0,1.56873865E1,1.856656E2,6.119921E3,3.0820587E2,7.7350063E3,4.0019067E2,5.0610233E2,2.421746E3,1.844364E4,2.1753098E3,7.891431E2,2.5465643E4,1.6308324E4,1.5815333E3,1.1148994E4,3.1026508E4,7.4404023E3,3.210203E1,5.8327843E1,1.2256789E4,4.2221094E3,5.9583496E2,3.7136743E3,2.9420691E4,2.0562438E4,3.9997333E2,4.086957E1,1.4086729E3,8.22738E2,1.05242905E2,1.26644196E2,1.1420789E3,1.2383279E3,6.3436656E0,2.8958125E0,1.8067591E0,1.3880628E1,1.3588976E2,4.9775852E1,3.0904436E3,3.0294773E3,1.6601909E2,1.4218677E2,6.733983E3,1.0010235E3,3.945758E2,5.614888E0,4.7203265E2,3.406965E1,2.4166982E3,5.0479436E0,1.20473955E4,6.3962446E3,1.5410178E2,2.021208E3,3.969123E1,7.494519E2,8.94973E3,1.6515912E4,1.0269828E4,6.0384956E3,9.850393E0,1.5716829E3,4.698113E3,6.4508813E3,1.8725605E4,1.2300902E4,7.001547E3,4.388555E2,7.151815E0,2.4950216E1,1.5421644E1,4.29062E1,5.3985615E3,6.858227E3,2.646171E3,1.5759382E3,5.359812E2,5.985377E1,2.7223629E1,3.6864507E3,2.276339E4,6.657301E3,9.703514E2,1.9592088E4,7.722085E1,3.2275247E2,4.6490097E0,3.6220562E1,5.5076717E1,1.3535961E3,4.324455E2,3.9029245E2],"tree_param":{"num_deleted":"0","num_feature":"162","num_nodes":"127","size_leaf_vector":"1"}},{"base_weights":[-8.6956465E-4,7.7922E-2,-7.104581E-2,5.7448488E-2,2.619357E-1,-1.12091705E-1,-3.249853E-2,7.996123E-2,1.914554E-2,2.2796759E-1,4.0715674E-1,-9.517417E-2,-2.4279843E-1,-2.8283175E-2,-2.0924431E-1,1.3643706E-1,6.355044E-2,1.2422267E-2,1.8172097E-1,2.9429778E-1,1.3870552E-1,1.7275295E-1,5.1666343E-1,-4.7747485E-2,-1.2876531E-1,-2.8601274E-2,-3.6360112E-1,-2.1301813E-2,-1.3609491E-1,-2.1942137E-1,8.84767E-1,2.0326881E-1,9.785058E-2,1.1079935E-1,4.025197E-2,5.61382E-2,-8.47535E-3,1.2396216E-1,5.1885027E-1,2.4537332E-1,4.4982636E-1,1.16780736E-1,5.7972395E-1,3.907057E-1,1.4619896E-2,3.7164328E-1,5.7592535E-1,3.6623055E-1,-5.2351397E-2,-5.0043225E-2,-1.5688655E-1,4.9983732E-2,-9.732339E-2,-2.9430965E-1,-4.8090905E-1,2.0916816E-2,-4.2165563E-2,-3.840116E-2,-2.2913978E-1,-2.3836306E-1,3.7157562E-1,-1.8064213E-1,1.104715E0,2.1016706E-2,7.248887E-2,2.689685E-2,1.6986062E-1,3.9682753E-2,2.7669195E-4,-3.513326E-2,1.4026535E-2,2.2219427E-2,-3.5555325E-2,5.0420933E-3,-2.093189E-2,2.020741E-1,2.3338571E-2,-1.4801733E-1,1.8857218E-1,3.9763875E-2,9.5035724E-2,1.844311E-1,1.07017696E-1,2.4334474E-2,8.29241E-2,1.9985397E-1,-1.7121308E-2,-7.669644E-2,1.4230324E-1,1.4096202E-1,-2.0127727E-2,1.3115093E-1,6.050846E-3,1.8783738E-1,1.3538212E-1,-2.4823269E-1,1.2759586E-1,-1.0572664E-2,-4.6626434E-2,-4.1657244E-3,-4.764474E-2,-4.1778352E-2,-8.3865E-2,4.405888E-2,-2.4112284E-2,-3.1825192E-2,2.572181E-1,-1.1744417E-1,-5.3469673E-2,-1.5254219E-1,-9.673667E-2,1.1680539E-2,-3.8146276E-2,1.6711903E-1,-1.3132349E-2,-5.0463963E-2,3.4357127E-2,-7.561694E-2,7.581116E-2,-8.854229E-2,-1.1551709E-2,2.823916E-1,-7.4453875E-2,3.607337E-1,-1.9659452E-2],"categories":[],"categories_nodes":[],"categories_segments":[],"categories_sizes":[],"default_left":[0,0,0,0,0,0,0,0,0,0,0,0,0,0,0,0,0,0,0,0,0,0,0,0,0,0,0,0,0,0,0,0,0,0,0,0,0,0,0,0,0,0,0,0,0,0,0,0,0,0,0,0,0,0,0,0,0,0,0,0,0,0,0,0,0,0,0,0,0,0,0,0,0,0,0,0,0,0,0,0,0,0,0,0,0,0,0,0,0,0,0,0,0,0,0,0,0,0,0,0,0,0,0,0,0,0,0,0,0,0,0,0,0,0,0,0,0,0,0,0,0,0,0,0,0],"id":11,"left_children":[1,3,5,7,9,11,13,15,17,19,21,23,25,27,29,31,33,35,37,39,41,43,45,47,49,51,53,55,57,59,61,63,65,67,69,71,73,75,77,79,81,83,85,87,89,91,93,95,97,99,101,103,105,107,109,111,113,115,117,119,121,-1,123,-1,-1,-1,-1,-1,-1,-1,-1,-1,-1,-1,-1,-1,-1,-1,-1,-1,-1,-1,-1,-1,-1,-1,-1,-1,-1,-1,-1,-1,-1,-1,-1,-1,-1,-1,-1,-1,-1,-1,-1,-1,-1,-1,-1,-1,-1,-1,-1,-1,-1,-1,-1,-1,-1,-1,-1,-1,-1,-1,-1,-1,-1],"loss_changes":[2.0109061E3,6.4543445E2,3.0434595E2,1.3294223E2,8.452063E1,2.0597351E2,7.3902275E1,8.998541E1,6.2380653E1,8.2279236E1,8.334302E1,1.314018E2,2.7621814E2,7.292344E1,2.5920189E1,5.6357452E1,8.2821655E1,5.0070328E1,4.4068115E1,6.0576477E1,5.726226E1,3.5716545E1,1.8820984E1,6.520344E1,1.068833E2,2.0800339E1,5.5340088E1,8.015588E1,5.355214E1,2.5725334E1,7.6950397E0,4.0870514E1,5.3148376E1,5.863452E1,5.1575554E1,5.5509212E1,5.7469257E1,4.9078224E1,3.7094208E1,4.885913E1,2.9069824E1,3.2143005E1,1.5483498E1,2.3678894E1,2.2414642E1,1.4854164E1,9.544861E0,2.689315E1,5.9644203E1,4.9985794E1,7.687561E1,2.270697E1,1.7275093E1,4.835904E1,1.0899719E1,8.030438E1,5.8741234E1,5.710365E1,3.338678E1,2.5175682E1,2.5483574E1,0E0,2.2607384E0,0E0,0E0,0E0,0E0,0E0,0E0,0E0,0E0,0E0,0E0,0E0,0E0,0E0,0E0,0E0,0E0,0E0,0E0,0E0,0E0,0E0,0E0,0E0,0E0,0E0,0E0,0E0,0E0,0E0,0E0,0E0,0E0,0E0,0E0,0E0,0E0,0E0,0E0,0E0,0E0,0E0,0E0,0E0,0E0,0E0,0E0,0E0,0E0,0E0,0E0,0E0,0E0,0E0,0E0,0E0,0E0,0E0,0E0,0E0,0E0,0E0,0E0],"parents":[2147483647,0,0,1,1,2,2,3,3,4,4,5,5,6,6,7,7,8,8,9,9,10,10,11,11,12,12,13,13,14,14,15,15,16,16,17,17,18,18,19,19,20,20,21,21,22,22,23,23,24,24,25,25,26,26,27,27,28,28,29,29,30,30,31,31,32,32,33,33,34,34,35,35,36,36,37,37,38,38,39,39,40,40,41,41,42,42,43,43,44,44,45,45,46,46,47,47,48,48,49,49,50,50,51,51,52,52,53,53,54,54,55,55,56,56,57,57,58,58,59,59,60,60,62,62],"right_children":[2,4,6,8,10,12,14,16,18,20,22,24,26,28,30,32,34,36,38,40,42,44,46,48,50,52,54,56,58,60,62,64,66,68,70,72,74,76,78,80,82,84,86,88,90,92,94,96,98,100,102,104,106,108,110,112,114,116,118,120,122,-1,124,-1,-1,-1,-1,-1,-1,-1,-1,-1,-1,-1,-1,-1,-1,-1,-1,-1,-1,-1,-1,-1,-1,-1,-1,-1,-1,-1,-1,-1,-1,-1,-1,-1,-1,-1,-1,-1,-1,-1,-1,-1,-1,-1,-1,-1,-1,-1,-1,-1,-1,-1,-1,-1,-1,-1,-1,-1,-1,-1,-1,-1,-1],"split_conditions":[-2.1752632E0,4.67E2,-6.104854E-2,-3.6837924E0,-2.2069743E-1,9.288095E-1,2.3712978E1,-8.0385685E-1,5.6898704E0,-6.381385E0,2.3E1,4.4059253E0,3.544001E-1,3.261711E1,3.0598336E-1,-1.3755391E1,-3.6572025E1,-5.150381E-1,1.1235799E5,5.8087673E1,1.4128073E-3,1.5301063E0,9.824504E-1,-1.5850076E1,3.512805E-4,7.20964E0,4.59874E0,1.2570543E1,4.3848774E-1,9.9785894E-1,-3.4960504E0,1.8138626E1,8.633507E2,4.08E2,4.9478747E-2,4.45E2,-1.3755391E1,-1.3067687E-4,-3.479279E-1,7.933533E-1,3.2904112E-1,1.0962505E5,1.03852125E5,1.9834279E2,-2.6553285E-3,9.669939E0,2.2934006E1,8.3333336E-2,5.226519E-3,6.3270533E-1,6.3270533E-1,6.234898E-1,2.1313348E0,5.1E1,5.04453E-3,2.3283867E1,9.840609E-5,9.017893E-4,2.1808118E-1,7.050226E-2,2.3481973E-2,-1.8064213E-1,2.3813143E-4,2.1016706E-2,7.248887E-2,2.689685E-2,1.6986062E-1,3.9682753E-2,2.7669195E-4,-3.513326E-2,1.4026535E-2,2.2219427E-2,-3.5555325E-2,5.0420933E-3,-2.093189E-2,2.020741E-1,2.3338571E-2,-1.4801733E-1,1.8857218E-1,3.9763875E-2,9.5035724E-2,1.844311E-1,1.07017696E-1,2.4334474E-2,8.29241E-2,1.9985397E-1,-1.7121308E-2,-7.669644E-2,1.4230324E-1,1.4096202E-1,-2.0127727E-2,1.3115093E-1,6.050846E-3,1.8783738E-1,1.3538212E-1,-2.4823269E-1,1.2759586E-1,-1.0572664E-2,-4.6626434E-2,-4.1657244E-3,-4.764474E-2,-4.1778352E-2,-8.3865E-2,4.405888E-2,-2.4112284E-2,-3.1825192E-2,2.572181E-1,-1.1744417E-1,-5.3469673E-2,-1.5254219E-1,-9.673667E-2,1.1680539E-2,-3.8146276E-2,1.6711903E-1,-1.3132349E-2,-5.0463963E-2,3.4357127E-2,-7.561694E-2,7.581116E-2,-8.854229E-2,-1.1551709E-2,2.823916E-1,-7.4453875E-2,3.607337E-1,-1.9659452E-2],"split_indices":[122,137,131,111,131,132,124,131,147,122,142,122,122,65,155,122,122,131,28,53,45,124,132,111,45,115,122,122,116,131,39,51,16,142,99,142,122,76,152,132,147,123,29,15,12,112,118,136,11,132,132,134,151,142,12,121,46,46,157,157,157,0,73,0,0,0,0,0,0,0,0,0,0,0,0,0,0,0,0,0,0,0,0,0,0,0,0,0,0,